30,30,8
5.36678e+45,3.0988e+46,1.49608e+46,-1.95897e+45,3.56347e+46,-4.33309e+46,4.43607e+46,-2.50577e+46
-3.13982e+47,-5.68333e+47,6.92836e+44,-4.11246e+47,-8.08142e+47,7.81964e+47,-6.62249e+47,1.3016e+47
-1.93821e+47,-1.04917e+47,-6.48455e+46,-9.66648e+46,-2.74011e+47,2.77026e+47,7.52867e+45,1.56574e+47
2.65767e+47,2.81038e+47,9.5239e+46,2.62419e+46,6.72364e+46,5.86869e+45,1.58469e+47,-1.17459e+47
6.64123e+46,9.13301e+46,1.31498e+47,5.47692e+46,1.9862e+47,-4.55847e+46,1.3921e+47,-2.0579e+47
-3.05256e+46,1.10002e+44,2.8775e+45,9.49469e+45,8.4363e+45,3.05836e+44,5.03756e+45,1.04049e+47
-4.72322e+47,-5.83612e+47,-4.23527e+47,-3.25187e+47,-5.92712e+47,4.08504e+47,-3.55146e+47,5.90935e+47
3.1837e+44,1.85531e+45,1.2566e+45,3.88509e+45,8.74809e+44,-3.26872e+45,4.93021e+45,-3.28572e+45
-2.57313e+47,5.95057e+45,-1.24412e+47,-1.31682e+47,-2.34228e+47,5.73361e+46,-1.68573e+47,2.61646e+47
-1.82841e+47,-5.34276e+46,-1.65139e+47,-1.11022e+47,-1.49164e+46,8.00078e+46,-2.36752e+47,-1.7813e+46
-1.13673e+45,1.25778e+46,6.64986e+46,4.11672e+46,4.6992e+46,3.33378e+46,5.55058e+46,-1.22317e+46
-8.29917e+42,-1.84382e+41,4.08103e+44,3.72651e+44,2.71151e+44,2.41063e+44,3.87678e+44,-6.39803e+44
-1.83002e+47,9.65181e+47,3.12757e+47,4.96998e+47,4.28978e+47,1.9572e+47,5.08867e+47,-5.44905e+47
1.61958e+46,-8.36037e+45,-2.87923e+46,-8.87603e+45,-2.79757e+46,-3.30535e+46,-8.08248e+45,2.11151e+46
-4.20894e+45,-3.58031e+46,-3.41388e+46,-2.37031e+45,-4.29355e+46,-4.06856e+46,-5.40632e+46,4.90481e+46
-3.50906e+46,-4.28176e+46,-2.72469e+46,-7.56429e+45,-2.86662e+46,-3.48965e+46,-2.86589e+46,1.35521e+46
2.16483e+45,8.36086e+45,9.26344e+45,5.26878e+45,7.77079e+45,4.54517e+45,1.2488e+46,-1.32374e+46
4.29607e+45,-1.30547e+46,3.44303e+46,-1.75123e+46,-8.80252e+45,-1.34763e+46,-4.59577e+45,-2.78364e+45
-1.00423e+46,-7.30609e+44,5.60478e+45,-3.92116e+46,-1.43228e+46,-6.03518e+46,-1.42449e+46,3.578e+46
-1.11316e+45,9.36469e+44,3.83978e+44,2.79796e+45,-5.88531e+42,3.88266e+45,2.48073e+45,-1.67339e+45
-5.81364e+44,1.35517e+45,4.90246e+44,9.02281e+44,1.27283e+45,2.20712e+45,2.58814e+45,-1.65689e+45
5.2526e+45,-6.68855e+45,-1.45122e+46,-5.55684e+45,-1.24693e+46,-3.38124e+45,-1.67058e+46,1.24562e+46
-6.87972e+45,-8.45557e+46,-7.64477e+46,-9.71346e+46,-9.718e+46,-4.09801e+46,-6.40984e+46,-1.0224e+47
-1.44526e+45,5.93141e+44,-2.43216e+44,4.64238e+45,1.46481e+45,3.66139e+45,3.90911e+44,5.07793e+45
-1.25874e+44,-6.57796e+45,-2.18067e+44,-1.81645e+45,-9.62112e+44,-1.67509e+45,5.29854e+45,-1.38386e+45
-8.27109e+44,1.31317e+44,6.35405e+44,1.03124e+45,-5.49324e+42,1.03731e+45,-1.58213e+45,1.18561e+45
2.03858e+47,-2.26175e+46,7.79034e+46,2.36846e+46,1.7955e+47,3.69513e+46,-4.15336e+46,8.23205e+45
-1.77969e+45,-2.92761e+45,-3.35883e+45,-1.55693e+45,-8.6803e+44,-3.32182e+45,3.28e+45,-1.14915e+44
-6.87402e+43,-1.30697e+45,8.343e+45,2.48548e+45,1.25586e+46,1.51218e+46,-3.32762e+44,1.27653e+46
-1.18495e+47,-2.66246e+47,-1.16877e+46,-1.62643e+47,-2.12767e+47,-6.54928e+46,1.88894e+47,-2.74765e+47
-1.12569e+49,-1.0705e+50,-1.26498e+50,-7.93473e+49,-8.62792e+49,1.58568e+49,-2.47909e+49,1.99024e+49
-5.49759e+48,-8.31389e+47,6.6032e+47,-6.50003e+48,-1.54662e+49,9.9621e+48,-6.30674e+48,1.18337e+49
-9.34979e+46,-2.3329e+47,-2.06958e+47,-8.54749e+46,-2.03907e+47,1.71304e+47,-1.29989e+47,2.45855e+47
-3.35379e+47,-6.01205e+47,-1.13259e+47,-2.93681e+47,-1.38468e+47,-2.33215e+46,-3.4734e+47,1.26691e+47
-8.60793e+45,-1.13428e+46,-1.01269e+46,5.39106e+45,2.1928e+42,2.22854e+45,9.75283e+45,-7.09686e+45
1.56285e+47,4.31562e+47,-2.33562e+46,4.89563e+47,2.93172e+47,-4.60855e+47,6.03025e+46,-1.23539e+47
3.92262e+49,6.64472e+49,7.11673e+49,2.08049e+49,1.44218e+49,-3.93063e+49,2.78932e+49,-5.96432e+49
-2.61837e+49,-2.30207e+49,-7.40966e+48,-4.09772e+49,-3.76715e+49,1.78189e+49,-3.3749e+49,-1.2729e+49
-1.69714e+44,-1.58512e+45,-9.72377e+44,-1.52784e+45,-1.38497e+45,4.5466e+44,-1.52618e+45,-1.13354e+45
-5.01849e+43,8.85707e+44,6.76692e+44,3.95863e+44,1.5715e+45,1.81735e+45,1.73506e+45,4.67686e+44
9.51257e+46,1.21078e+47,2.58903e+47,1.94437e+47,3.94258e+47,4.01851e+47,4.12001e+47,-5.82337e+46
1.31723e+50,-7.83356e+48,2.07002e+50,1.96702e+50,1.37002e+50,8.48743e+49,3.49768e+49,-2.09495e+50
2.2315e+48,-8.31537e+48,-1.07019e+49,-7.97109e+48,-1.72263e+48,-7.26698e+48,-1.12523e+49,5.55835e+48
-4.22506e+50,-5.96755e+48,1.72926e+50,6.40773e+50,6.83313e+49,2.22049e+50,1.03428e+50,-1.31982e+50
-4.67963e+48,-1.21214e+49,-1.19042e+49,-3.3587e+48,-1.57746e+49,-3.59321e+48,-4.82883e+48,6.47394e+48
5.74409e+44,1.53202e+45,2.37013e+45,1.72358e+45,1.64782e+45,2.14553e+45,3.39306e+45,-2.26591e+45
2.5103e+46,-3.28834e+45,-3.85413e+47,-2.56423e+47,-6.14257e+46,-4.17709e+46,-9.49541e+46,9.54161e+46
5.72521e+46,1.75615e+46,6.26232e+46,1.27817e+46,1.07546e+47,6.16122e+45,6.95077e+46,-7.74046e+45
-4.79216e+50,2.7788e+50,1.13994e+51,1.76098e+50,2.26585e+50,3.91746e+50,5.53514e+50,-4.22198e+50
3.11686e+48,3.959e+48,2.16304e+48,5.2043e+48,6.74444e+48,7.52996e+48,1.36601e+48,-1.73875e+48
2.30586e+51,3.47348e+51,3.24433e+51,3.63871e+51,5.1473e+51,4.7621e+51,1.22257e+50,-1.13504e+51
3.058e+47,-3.05268e+47,4.93738e+46,-1.55162e+48,-4.34642e+47,-4.04314e+47,-6.99309e+47,1.22649e+48
-6.59425e+45,3.3877e+46,3.22697e+46,4.4993e+46,1.65498e+45,1.84899e+46,2.33769e+45,8.74792e+45
1.30417e+44,-3.40386e+43,-6.0855e+44,-2.72037e+44,-1.52267e+44,-6.00481e+44,-3.07033e+44,3.3999e+43
4.7448e+45,5.1496e+45,9.54311e+44,8.39842e+45,8.20177e+45,8.22996e+45,-3.7439e+45,3.84896e+45
2.53646e+47,-3.43755e+47,-6.22992e+47,-4.43092e+47,-5.80211e+47,-3.4236e+47,3.67993e+47,-6.42767e+47
-5.2954e+47,-1.75794e+47,-1.58492e+47,-2.58384e+47,-8.59441e+47,-1.06673e+48,4.66664e+47,-2.21212e+46
2.20536e+46,5.6271e+46,7.11842e+46,8.85645e+46,4.94934e+46,8.19563e+46,-7.98617e+46,6.23355e+46
1.23624e+46,-1.85403e+46,1.84058e+45,-3.59633e+46,-2.56516e+46,-1.09642e+46,3.98983e+46,-2.68472e+46
-5.98465e+45,-2.10597e+45,-2.09982e+46,-7.97834e+45,-1.19472e+46,-1.87145e+46,9.7845e+45,1.65405e+45
3.47217e+50,5.30911e+50,4.03349e+50,5.60642e+50,5.17866e+50,-1.81719e+50,1.74979e+50,-4.97181e+50
-6.47203e+45,1.12159e+47,9.65437e+46,8.835e+46,1.03183e+46,-1.54351e+47,7.32391e+46,2.08749e+46
1.35379e+46,1.10239e+47,1.84106e+47,4.28166e+46,1.30864e+47,-8.02484e+46,2.44815e+45,-1.70544e+47
-4.49932e+44,2.45642e+46,7.90618e+45,8.3989e+46,1.42323e+46,-6.33005e+46,6.33035e+46,-9.84323e+46
4.63444e+45,1.31458e+45,6.54589e+45,2.55859e+45,3.10374e+45,-6.10334e+44,1.62691e+45,-2.15626e+45
-1.13352e+46,2.19619e+45,1.99735e+46,3.20942e+46,2.44707e+46,-4.14111e+46,3.53467e+46,-4.40038e+46
-4.98167e+48,-5.75711e+48,2.59376e+47,-1.03283e+49,-1.02781e+49,1.42787e+49,-1.41078e+49,1.71537e+49
2.18208e+44,-1.32183e+44,-1.26702e+43,-6.75956e+43,-8.34951e+43,1.63876e+45,-1.27003e+44,1.55639e+45
3.20906e+45,-6.65187e+45,-1.25523e+45,-1.96363e+44,-7.37676e+45,-1.12647e+46,-1.52644e+46,-1.00191e+46
-1.03825e+46,-3.00655e+47,-2.01006e+47,-5.14465e+46,-1.01584e+47,-2.21392e+47,-1.02388e+47,-2.21264e+47
3.05314e+46,1.44356e+47,1.48799e+47,1.34542e+47,2.21886e+47,5.073e+46,3.93727e+46,2.28734e+46
5.71609e+47,-2.33492e+48,-2.14678e+48,-1.01812e+48,-6.15581e+47,-7.74832e+47,-7.79018e+47,-1.14133e+48
2.5456e+49,3.05845e+49,1.18509e+50,6.79369e+49,7.13755e+49,8.05383e+49,1.11799e+50,-1.98418e+49
7.78498e+43,-7.0618e+44,-6.25256e+44,-1.01764e+45,-6.12599e+44,-7.06037e+44,-3.58236e+44,-3.58311e+44
2.06894e+49,-1.32843e+50,-2.85151e+50,-1.09811e+50,-3.98258e+50,-1.85341e+50,-1.44426e+50,3.27826e+50
-7.35855e+45,-5.47706e+44,-5.10208e+45,-2.32768e+46,-2.61636e+46,-6.05793e+45,-1.69389e+46,1.92798e+46
5.11687e+45,1.3861e+46,6.7508e+44,2.02843e+46,2.41919e+46,5.09587e+46,3.93042e+46,-4.97015e+46
2.79559e+44,1.13124e+44,1.33625e+44,1.00438e+44,2.41643e+44,4.02604e+44,3.27789e+44,-4.09617e+44
3.44979e+45,4.54341e+45,8.59758e+45,-3.94319e+44,1.46244e+45,4.65582e+45,6.24069e+45,-5.10262e+45
-1.27564e+45,-6.75781e+45,-7.37277e+44,-9.24665e+45,-2.98803e+45,-9.76086e+45,-6.53314e+45,7.17181e+45
-1.22773e+50,-1.24388e+50,-6.68949e+49,-1.90422e+49,-1.43289e+50,-1.37783e+50,-3.45183e+49,1.72323e+50
1.63726e+47,-2.64684e+47,-7.63516e+46,-1.01436e+48,-7.59819e+47,-3.41963e+47,-4.4225e+47,1.31561e+47
6.46402e+45,9.92197e+45,1.10744e+46,1.04443e+46,1.09217e+46,5.46955e+45,6.45376e+45,-9.98228e+45
-1.38033e+44,-2.08444e+44,-2.67935e+44,-4.63413e+44,-2.93549e+44,-4.98037e+44,-6.78362e+44,3.1461e+44
-6.23528e+44,-1.93123e+45,1.78931e+44,-7.68458e+44,-2.17661e+45,-2.33638e+44,-7.72907e+44,-2.46487e+45
-7.83392e+45,-1.39994e+47,-1.6494e+47,-7.45698e+46,-2.0153e+47,-1.23874e+47,1.95245e+47,-9.9292e+46
6.64972e+47,-1.25489e+48,8.68753e+46,-1.43207e+48,-2.82114e+47,-1.58988e+48,1.65546e+48,-1.71407e+48
5.15525e+46,1.5589e+46,-1.84843e+47,-1.2093e+47,-1.48528e+47,-5.96379e+46,1.56257e+47,-1.7761e+47
-6.23314e+46,-1.83724e+47,-2.19722e+47,-1.6029e+47,-2.05135e+47,-1.11131e+47,2.32082e+47,-1.0765e+46
1.1434e+47,-1.90361e+47,-6.59887e+45,-2.12167e+47,-3.6894e+46,-2.47023e+47,1.57501e+47,-2.30274e+47
-5.82327e+45,-6.04364e+45,-2.36609e+45,-1.61177e+45,-1.57708e+46,1.688e+46,-3.34817e+45,1.10394e+46
1.15644e+45,-1.28793e+44,4.11002e+45,2.0794e+45,1.72177e+44,-4.51073e+45,5.68928e+45,-2.81108e+45
1.12586e+47,8.58012e+46,1.38015e+47,1.25868e+47,2.71443e+46,-5.02626e+46,9.22725e+46,-1.83407e+47
1.29423e+46,5.86589e+46,5.28417e+46,4.58806e+46,1.56684e+46,-8.18399e+45,6.9445e+46,-4.25307e+46
-3.47468e+45,-3.29756e+45,-4.11935e+45,4.24336e+45,-1.7997e+45,-4.67521e+45,7.58544e+45,5.1755e+44
1.12047e+46,3.2959e+47,2.4015e+47,4.53862e+47,3.55351e+47,-2.36274e+47,5.258e+46,-5.40816e+47
-5.29247e+43,1.52001e+44,-3.4061e+43,5.02415e+44,1.14001e+44,-2.91494e+44,2.19041e+44,-4.59288e+44
2.43105e+45,3.16475e+46,1.5032e+46,1.24426e+46,3.47233e+45,-5.88889e+46,1.87752e+46,-5.20535e+46
-4.28233e+45,-2.08131e+45,-1.96328e+44,-3.57143e+45,-1.30012e+45,-3.85459e+45,-3.37693e+45,-5.73097e+45
1.9538e+45,5.5081e+45,3.05159e+45,2.71568e+45,2.01966e+45,1.33902e+45,3.2464e+45,4.51779e+45
2.19301e+45,5.94843e+45,2.81159e+45,1.86936e+45,6.76866e+45,3.01486e+45,4.21108e+45,2.28981e+45
-5.49068e+49,-4.94299e+50,-3.54147e+50,-6.99609e+50,-7.21321e+50,-8.08787e+50,-5.53301e+50,-6.46347e+50
1.1699e+46,-1.01311e+46,-6.83154e+45,-1.29842e+46,-3.92259e+46,-5.75057e+44,-3.55941e+46,-5.17179e+46
-3.28601e+44,-9.02254e+43,-1.10544e+45,-7.58046e+44,-2.98393e+45,-2.27418e+44,-2.41659e+45,-1.70643e+45
-7.05335e+46,-6.99915e+46,-1.42113e+46,3.83599e+46,-3.77507e+46,-3.09328e+46,4.0028e+46,1.96836e+47
-8.52185e+47,-4.85204e+48,-8.08692e+49,-5.2726e+49,3.14772e+49,-3.6594e+49,5.77792e+49,-5.32367e+49
-3.58225e+44,9.42303e+45,5.95466e+45,1.24075e+45,3.05625e+45,4.13671e+45,8.14994e+45,-4.004e+45
8.36727e+46,-1.42805e+47,-1.57831e+47,-1.84106e+47,-1.52419e+47,-6.79228e+46,-2.26202e+47,8.21268e+46
1.89509e+47,1.3644e+47,1.85077e+47,9.90612e+46,3.01671e+47,1.72142e+47,5.18543e+46,-1.55163e+47
1.1776e+47,-2.66599e+47,-1.38012e+47,-2.51328e+47,-1.42099e+46,-1.6787e+47,-1.6248e+46,2.21148e+47
2.14735e+46,2.12996e+46,1.59181e+46,1.3246e+46,1.18166e+46,3.72719e+46,5.23016e+44,-2.72063e+46
2.05596e+45,-7.43884e+45,-6.67283e+45,-7.72962e+45,-9.05762e+45,-9.52263e+45,-4.56455e+44,3.52794e+45
7.21144e+49,5.62893e+48,-3.24195e+49,3.57555e+50,5.48414e+50,2.96256e+50,5.057e+50,-2.45652e+50
1.51424e+47,3.63293e+46,-6.84996e+46,6.47067e+46,9.99781e+46,2.24492e+47,2.16939e+47,4.47673e+46
8.05512e+44,-4.39944e+44,-1.95729e+45,-7.09664e+42,-1.92318e+45,-3.49606e+45,2.45817e+45,-1.46521e+45
-6.841e+44,-5.89432e+43,-9.57559e+44,-1.06418e+45,-2.65052e+44,-4.67892e+44,6.96046e+44,7.98217e+44
-7.6469e+46,-7.38993e+46,2.30266e+46,-1.6672e+47,-1.6679e+47,-2.64871e+47,2.42939e+47,-2.35121e+46
-4.58404e+43,9.08426e+44,6.89081e+44,-3.50297e+43,1.05377e+45,9.54926e+44,-1.29276e+45,-3.03767e+44
1.10701e+44,9.90409e+43,3.10693e+44,5.44589e+44,1.72398e+44,1.29985e+45,-6.66992e+44,7.67486e+44
8.59172e+46,3.45751e+45,1.13512e+47,1.01822e+47,1.14437e+47,2.15191e+46,1.46676e+47,-5.42214e+46
2.73537e+46,-1.5034e+47,2.14481e+46,-1.96394e+47,-1.52417e+47,2.6179e+46,-1.61579e+47,1.40338e+47
4.86066e+45,1.58249e+46,9.21265e+44,8.56647e+44,7.91285e+45,-6.77763e+44,3.19353e+45,-7.15805e+45
-1.37103e+44,4.92838e+45,4.38708e+45,-2.45408e+44,4.54879e+45,-4.49424e+44,4.23229e+45,-1.78658e+45
-2.95198e+48,-7.52132e+49,-5.30992e+49,-1.10675e+50,-8.53845e+49,7.49015e+49,-7.61591e+49,8.26668e+49
-1.32568e+48,-5.92845e+48,-4.00073e+47,-6.3561e+48,-5.60606e+48,2.4029e+48,-2.14129e+48,4.14861e+48
-7.19669e+47,-4.02975e+47,-1.43994e+48,-1.18859e+48,-4.04141e+47,1.88342e+48,-5.56137e+47,1.66219e+48
-4.04178e+46,5.4724e+46,1.77945e+47,2.40929e+47,2.33916e+47,-1.18522e+47,1.16118e+47,-5.48072e+46
3.19483e+46,-1.99171e+46,-3.77047e+45,-1.50514e+46,-2.91353e+45,2.96532e+47,-6.60063e+43,2.79901e+47
2.89363e+46,6.25469e+46,8.69077e+46,1.13936e+47,4.41089e+46,6.4524e+46,1.15876e+46,1.36047e+47
1.99241e+47,-2.33154e+46,9.02746e+46,1.71919e+46,3.32846e+47,4.79784e+46,1.47202e+47,1.21593e+47
-3.68254e+46,-1.16793e+45,-1.2508e+45,6.54902e+45,1.15929e+46,1.2871e+46,1.32577e+46,7.20338e+45
4.83507e+46,-2.61068e+46,2.49676e+46,-3.40136e+46,-7.01519e+46,-9.72293e+45,-2.39969e+46,-1.14046e+46
1.49734e+47,-4.91182e+46,7.02647e+46,6.00715e+45,-3.62066e+46,-6.14029e+46,-1.21426e+46,-9.34501e+46
2.97809e+44,-3.06851e+43,-2.88945e+44,-1.91701e+44,-2.95324e+45,-3.17838e+44,-3.27797e+45,-5.7331e+44
-8.18949e+48,-2.46538e+48,-2.25733e+48,-1.9497e+48,1.16468e+49,-8.04968e+48,3.35395e+49,2.0834e+49
-1.77229e+46,-3.66497e+46,-9.19339e+45,2.58635e+46,3.07604e+46,-2.17459e+46,-8.53252e+46,-6.5498e+46
-8.73108e+45,-1.27568e+46,-7.31404e+45,-4.2259e+44,-8.43457e+45,-5.57364e+45,-4.45337e+45,-1.53695e+44
-6.98043e+44,-1.21442e+45,-6.52354e+44,-1.74658e+45,-3.55022e+44,-1.99247e+45,-6.53298e+44,9.86666e+44
6.70842e+46,-9.45753e+46,-1.89092e+47,-9.2065e+46,-2.4871e+47,-1.24624e+47,-8.74728e+46,2.57733e+47
-8.27841e+46,-1.14616e+47,-1.6741e+47,-1.52596e+47,-2.20049e+47,-2.70368e+47,-1.79351e+47,1.35168e+47
1.80648e+47,1.03757e+47,2.4436e+46,1.17273e+47,2.39944e+47,1.884e+47,1.03765e+47,-1.00875e+47
6.53233e+47,1.05614e+47,2.36443e+47,1.08712e+48,2.24765e+47,4.23062e+47,5.1362e+47,-4.37092e+47
1.88786e+46,-4.12755e+46,-3.44689e+46,-4.35656e+46,-4.49914e+46,-1.77447e+46,-3.57928e+46,9.70577e+45
2.74712e+46,9.63087e+46,1.46146e+47,2.0087e+47,1.66032e+47,6.73782e+46,1.51485e+47,3.26008e+46
4.65522e+46,2.7586e+47,2.61044e+47,1.31125e+47,5.36279e+46,2.53233e+47,1.18737e+47,-5.06292e+46
3.0507e+46,-9.20842e+45,4.43182e+46,4.35862e+45,1.17072e+47,7.38039e+46,-9.28822e+46,-6.47944e+46
-8.229e+44,2.80328e+45,2.73121e+45,3.83638e+45,2.396e+45,3.39848e+45,-2.2416e+45,-1.00221e+44
-5.14781e+47,-1.86511e+47,-7.52239e+47,-7.12227e+47,-4.96992e+47,-4.10305e+47,3.26232e+47,7.92572e+47
6.34272e+47,-1.03836e+47,-2.02653e+47,1.99839e+48,4.08899e+47,1.48917e+48,-6.49737e+48,-1.51063e+48
-1.31026e+47,3.43579e+47,6.78749e+46,4.02819e+46,4.38544e+47,4.53518e+47,6.76938e+47,2.8665e+47
-5.53341e+44,-1.33455e+44,1.08856e+45,1.35863e+45,1.66087e+45,5.85788e+43,5.59088e+44,-5.98149e+44
-4.48848e+46,-3.91718e+46,-4.18887e+46,-3.98468e+46,-1.63067e+46,4.11795e+46,-3.45174e+46,3.4159e+46
-4.40907e+47,7.99775e+47,6.48385e+47,1.58134e+48,1.68911e+48,3.55514e+47,3.20399e+47,-6.34167e+47
-2.32285e+44,5.64403e+44,1.16293e+45,8.44822e+44,8.54368e+44,-1.56558e+45,8.88254e+44,-6.70317e+44
3.09085e+48,5.3627e+48,6.10296e+46,6.01358e+48,6.15406e+48,-3.50708e+48,3.04734e+48,-3.05803e+48
-5.67513e+50,-5.50425e+49,-7.62539e+50,-3.97685e+50,-3.14359e+50,1.06701e+51,-7.72723e+50,3.74304e+50
-1.91214e+50,6.42084e+49,2.78066e+49,1.45486e+50,4.56904e+50,-7.57624e+50,7.85755e+49,-3.05684e+50
5.64988e+52,4.57665e+52,6.29405e+52,2.3523e+51,6.1664e+52,3.94694e+52,6.26512e+52,1.2543e+53
2.70178e+51,-1.20763e+51,1.70072e+50,-3.86002e+51,-2.45153e+51,-1.13345e+51,-4.35664e+51,-1.18574e+51
3.88779e+47,-3.71706e+47,-2.56217e+47,-2.58751e+47,-1.25272e+47,-4.56878e+47,-1.00173e+47,-4.2347e+47
-4.29061e+46,-2.79431e+44,2.91944e+46,2.22409e+46,3.68496e+46,1.04858e+46,1.00503e+46,3.60565e+46
1.7007e+48,-6.808e+47,-1.81522e+48,-3.52613e+47,-9.66022e+47,-9.87444e+47,-9.66589e+47,-1.32064e+48
-2.83831e+45,5.43533e+45,6.98621e+44,1.56398e+45,4.35152e+44,5.718e+45,6.22331e+45,6.27273e+44
1.54071e+45,-1.24309e+45,1.75558e+45,-2.91013e+45,5.58201e+45,-5.66195e+45,1.57937e+46,9.86403e+45
2.48997e+46,7.77664e+45,-2.81921e+46,7.77352e+46,1.18856e+47,1.74089e+46,-1.15346e+47,-1.89767e+47
1.29852e+50,1.13868e+50,8.56572e+49,2.57078e+50,7.34264e+50,1.69508e+50,-3.69129e+50,-6.15885e+50
2.14505e+49,8.60627e+48,2.22764e+49,-4.68857e+49,-6.76176e+49,5.15497e+48,1.28544e+50,6.75577e+49
2.06423e+49,-2.80609e+48,2.86941e+49,3.19959e+49,4.19732e+49,1.09791e+49,2.81596e+49,-3.57236e+49
4.14328e+48,7.59785e+48,5.58822e+48,2.042e+48,3.65601e+48,8.73254e+47,7.30312e+48,-3.66572e+48
3.7898e+44,-5.14032e+45,-4.22691e+45,-1.62153e+45,-3.31044e+45,-3.77386e+45,-8.56096e+44,2.60209e+45
7.22202e+45,1.10089e+46,5.21116e+45,9.80806e+44,1.01448e+46,3.95194e+45,4.80129e+45,-8.30662e+45
4.43822e+46,1.63653e+46,-1.98919e+47,-2.01613e+47,-1.23266e+47,-2.63633e+47,-1.85458e+47,1.53401e+47
3.92215e+45,-2.32301e+46,-1.08655e+46,-1.50042e+46,-1.62797e+46,-1.45142e+46,-1.26616e+45,-4.08843e+45
-2.03326e+45,-8.50377e+44,-1.22155e+45,-2.32752e+45,-2.76908e+45,-2.77848e+45,-1.38167e+44,-1.34797e+45
-7.93253e+44,-1.43574e+46,-3.52199e+45,-3.22818e+46,-1.17847e+46,-1.44845e+46,1.9764e+45,3.57127e+45
4.92955e+46,-2.43511e+47,-6.20026e+46,-2.40104e+47,-2.18568e+47,-7.49488e+46,1.19058e+47,-5.55834e+46
5.11888e+46,2.84797e+47,-1.68555e+46,1.64694e+47,1.54475e+47,1.05963e+47,-2.16946e+47,-1.39148e+47
-4.20502e+44,-1.04742e+45,-3.50698e+44,-5.5156e+44,-1.72737e+44,-4.83655e+44,1.89241e+44,5.91014e+44
-7.71009e+44,2.87958e+45,-1.8531e+45,-3.92224e+46,-5.77158e+46,-2.59103e+46,1.19888e+47,4.21202e+46
4.83963e+45,-3.31529e+47,-1.70711e+47,-2.83365e+46,-1.58036e+47,-1.54942e+47,-7.22663e+46,-1.98872e+46
-5.59883e+44,4.82362e+44,-4.93254e+44,3.59182e+44,4.89943e+44,8.31118e+43,1.03564e+44,-4.62008e+43
-1.26962e+45,-6.04295e+44,3.62468e+45,-4.9165e+45,-5.67862e+45,-1.28927e+46,1.2494e+45,1.00812e+46
-2.70393e+47,7.31189e+45,-5.25237e+47,3.94274e+47,4.21487e+46,1.55781e+47,-4.10188e+46,-8.8632e+46
4.94396e+44,6.66705e+44,4.08089e+44,8.89099e+44,1.93358e+44,7.87146e+44,-5.65011e+44,-2.32364e+44
2.81982e+45,3.43139e+45,2.36137e+45,2.61843e+45,8.29142e+44,9.80348e+44,1.24007e+45,-2.33236e+45
-1.25861e+45,1.32126e+45,1.51669e+45,-1.38945e+43,1.33525e+45,-9.43434e+45,9.17788e+45,-1.87086e+45
-6.40345e+47,6.81379e+45,-8.42333e+47,-6.70664e+47,-2.02739e+47,-3.02375e+47,9.45785e+47,3.63004e+47
1.89018e+53,-1.87372e+53,-7.49618e+51,-1.90973e+53,-3.64234e+52,-9.13446e+52,-1.27609e+53,-1.20062e+53
3.92905e+53,-5.77244e+52,-4.07499e+53,-1.30549e+54,-8.2583e+53,-2.09588e+53,-5.51709e+52,-1.3705e+54
1.0328e+47,-1.2583e+47,-1.57919e+47,-5.64382e+46,-1.5394e+47,-1.4944e+47,-7.11285e+46,-3.02752e+46
4.73297e+46,-7.02382e+46,3.7385e+46,-8.788e+46,-5.56158e+46,-2.59938e+46,-6.55615e+46,-5.65147e+45
8.99384e+45,-2.23224e+46,-8.4639e+45,-3.2447e+45,-2.00431e+46,-1.99774e+46,-2.02434e+46,-1.48599e+46
-3.7519e+46,-5.24546e+46,6.33512e+46,-3.15624e+46,-9.99863e+46,-1.132e+47,-1.05668e+47,-1.0146e+47
-5.36761e+45,-8.36744e+45,-9.28714e+45,-5.98649e+45,-8.21351e+45,-7.37058e+44,1.65891e+46,1.89983e+46
-2.04683e+45,-1.4588e+46,-1.35823e+47,-1.31838e+47,-2.46075e+47,-1.80467e+47,2.11935e+47,1.69546e+47
-2.4715e+46,-9.35741e+46,-3.51108e+46,-5.38459e+46,-1.11162e+47,-2.04252e+46,8.77922e+46,1.21048e+47
1.15694e+48,2.31418e+48,1.58741e+48,3.68178e+47,1.54833e+48,2.59507e+48,-4.46849e+47,-2.65506e+48
-2.13653e+46,-9.94755e+46,-6.65542e+46,-1.20165e+47,-7.93674e+46,-1.03282e+47,1.75285e+47,1.57461e+47
-7.94087e+46,-1.18876e+47,-1.96634e+47,-2.26952e+47,-2.02088e+47,-2.45518e+47,-2.27095e+47,8.83901e+46
1.79441e+46,-5.0763e+46,-6.98475e+46,-7.17043e+46,-7.45939e+46,-3.83131e+46,-1.24351e+46,5.07407e+46
8.49743e+44,3.98862e+45,4.49288e+45,5.52843e+45,3.20888e+45,3.15244e+45,2.13733e+45,-2.22465e+45
3.31696e+46,-1.41962e+47,5.41146e+44,-5.55614e+46,-1.84104e+47,-1.28671e+47,-3.92475e+46,1.68237e+46
-6.44088e+46,1.07975e+47,5.66589e+46,2.80047e+47,1.59352e+46,2.6199e+47,-1.01651e+47,7.15597e+46
6.99109e+44,1.36674e+45,7.57888e+43,1.55196e+45,2.67648e+45,2.08236e+45,-1.25513e+44,7.35173e+44
1.67303e+50,3.79394e+50,2.50107e+50,1.27115e+50,6.75177e+49,2.92733e+50,-2.22089e+50,3.64168e+50
2.65129e+46,-8.50486e+45,9.39568e+46,4.74362e+46,1.33536e+47,8.97387e+46,-4.8188e+45,6.92475e+45
4.82982e+46,3.0516e+46,2.21043e+47,1.88689e+47,4.97387e+46,1.31247e+47,-1.26819e+47,5.31031e+46
3.07251e+44,-5.96903e+44,-1.6226e+45,-1.60788e+45,-1.3142e+45,-2.18869e+45,5.92225e+44,-1.14861e+45
-3.95441e+43,9.4373e+43,2.04734e+44,4.27678e+44,2.6764e+44,1.61956e+44,-2.89495e+44,4.12987e+44
4.52685e+47,-1.63465e+48,1.1806e+47,4.01996e+46,4.44734e+45,-1.96068e+45,-3.15382e+45,1.68522e+47
2.39373e+45,-4.84713e+45,-8.81684e+45,-1.07455e+46,-5.52455e+45,-1.09679e+46,3.71369e+45,8.90162e+45
-4.1365e+53,-4.95143e+53,-4.35589e+53,-4.87254e+52,-2.70509e+53,-4.13659e+53,1.76489e+53,4.50825e+53
-1.23211e+53,-7.68648e+51,-7.8119e+52,-1.58368e+53,-9.28453e+52,-1.776e+53,5.71194e+52,1.87611e+53
-7.76499e+44,-3.72595e+44,-6.77797e+44,-3.03988e+44,-1.00915e+45,-4.68738e+44,6.39405e+44,1.08661e+44
-8.83879e+46,1.36841e+47,-2.63463e+47,2.31389e+46,1.42268e+47,7.75634e+46,4.39366e+46,-8.90496e+45
2.73565e+46,4.16011e+47,1.05434e+47,4.13267e+47,4.25458e+46,4.22042e+47,-1.71265e+47,-1.10934e+47
3.74994e+46,1.44676e+46,4.18772e+46,1.5377e+47,1.27622e+47,1.14118e+46,-1.94505e+47,-6.56194e+46
-4.66007e+52,4.50931e+52,3.20383e+52,4.65534e+52,4.7662e+52,5.64762e+52,2.1183e+52,1.75893e+52
2.13475e+45,-1.08003e+45,3.9496e+45,-2.14995e+46,-4.5745e+45,-2.06372e+46,-7.97597e+45,-1.72919e+46
4.36875e+46,-3.30573e+46,-1.55214e+47,-1.14889e+46,-5.85951e+46,-2.68276e+46,-7.33049e+46,-3.07639e+46
-3.15643e+45,2.62098e+46,2.00028e+45,3.72464e+46,3.54511e+46,1.54322e+46,4.59471e+45,1.67027e+45
9.07447e+46,-1.46585e+46,6.27168e+46,1.23834e+47,8.63251e+46,2.81297e+42,2.7982e+47,2.46466e+47
-1.48994e+44,4.04697e+44,-2.83101e+43,4.31717e+44,2.37367e+44,4.09143e+44,4.7761e+44,4.31829e+44
9.91843e+46,2.49302e+46,1.194e+47,1.17306e+46,-2.62867e+44,4.39574e+46,-2.37753e+47,-2.28242e+47
-5.98736e+46,9.89288e+45,-1.68692e+47,-2.16432e+47,-5.87377e+46,-4.86948e+46,1.03708e+47,6.59532e+46
-6.91705e+45,3.15489e+44,-6.08985e+45,-6.03281e+45,-1.37828e+46,-1.1725e+46,2.96748e+45,4.92821e+45
-3.03054e+47,-6.27599e+45,-8.30595e+46,-8.36908e+46,-3.94801e+46,-1.37017e+47,5.98417e+46,1.20856e+47
3.28422e+44,-1.58955e+44,-3.84226e+44,-3.84975e+44,-3.68908e+44,-3.35031e+44,4.19853e+44,2.85977e+43
6.24994e+44,-8.49802e+43,2.50123e+44,-2.19143e+43,-9.95088e+43,-9.89992e+43,4.07058e+44,9.44233e+43
1.8582e+46,2.21677e+43,2.39194e+46,2.19755e+46,7.51347e+44,1.25885e+46,-2.23485e+46,-2.37243e+46
-4.96129e+46,-7.94765e+46,-1.36529e+47,-1.00595e+47,-1.17906e+47,-5.32469e+46,5.99931e+45,2.15029e+47
3.3128e+46,-1.05274e+47,-4.99147e+46,-1.0879e+47,-8.49986e+46,-1.36683e+47,1.31468e+47,-1.3227e+47
4.16306e+45,6.38667e+45,9.23391e+45,7.69982e+45,3.43638e+45,7.09986e+45,-9.93256e+45,8.81667e+44
1.76763e+44,4.41492e+44,2.89884e+44,6.57791e+44,6.17782e+44,5.19592e+44,-6.49644e+44,7.34706e+44
9.32158e+45,-1.05834e+45,-1.21537e+46,-4.61313e+46,-7.42303e+46,-8.39153e+46,7.68642e+46,-5.63998e+46
1.53519e+48,-1.94461e+48,-1.26787e+48,-6.50347e+48,-2.51894e+48,-9.59576e+48,1.17156e+49,-1.97284e+48
4.15694e+47,1.87631e+48,7.33863e+47,1.30949e+48,1.57965e+48,2.17961e+48,-2.22548e+48,9.17227e+47
-1.7642e+45,-3.40217e+45,-7.46422e+43,-3.32971e+45,-2.28065e+45,-3.03579e+45,1.77575e+45,-1.98611e+45
3.24539e+45,1.79053e+47,7.43862e+47,3.161e+47,4.67631e+47,7.34071e+47,-6.00042e+47,1.25043e+47
3.42292e+45,-4.35018e+45,-1.40349e+46,2.41334e+44,-1.17963e+46,-1.4503e+46,-9.12058e+45,-1.61114e+46
1.89713e+43,-7.81843e+43,-1.84083e+44,-2.87687e+43,-4.78027e+43,6.11195e+44,1.42198e+44,-6.41435e+44
-9.72495e+51,-1.68223e+52,2.50486e+49,-2.45396e+51,-1.47594e+52,-2.25078e+52,1.63631e+52,1.9403e+52
-2.07293e+54,-3.00843e+54,4.98016e+53,-2.91291e+54,-2.94705e+54,-3.11497e+53,1.41458e+54,2.50892e+54
2.71267e+46,8.35975e+46,-1.94274e+47,9.30149e+46,3.48425e+46,7.68728e+46,-6.58028e+45,-1.03346e+46
-2.38012e+45,-2.84129e+45,-2.74288e+43,-1.21726e+44,-3.36377e+44,-3.31749e+45,1.57153e+45,3.32865e+45
4.5459e+46,4.0399e+46,7.23605e+46,3.50931e+46,7.92666e+46,1.47401e+46,-5.12318e+46,-4.6384e+46
5.31088e+50,4.45267e+50,1.67715e+50,4.98085e+50,7.02328e+48,1.85158e+50,-2.03022e+50,-9.03462e+50
5.12615e+44,-1.14807e+44,-2.0874e+44,-3.84791e+44,-2.80386e+44,-2.51439e+44,-2.00993e+44,-4.64972e+44
-3.80756e+47,3.90082e+47,-6.37703e+46,2.98101e+47,6.54677e+46,6.38173e+47,2.72483e+47,1.47891e+47
2.16779e+45,-1.58471e+45,-1.26406e+44,-2.04185e+45,-3.44522e+45,-1.41235e+45,-2.91368e+45,-3.04222e+45
1.9604e+47,-1.45973e+47,1.5397e+47,-9.23272e+45,-1.42324e+47,-1.2019e+47,-1.4057e+47,-2.84955e+47
8.38867e+44,-1.3461e+45,1.6887e+45,-5.70083e+44,-7.30744e+44,-2.28321e+45,-7.05519e+44,-2.36774e+45
1.27415e+48,-7.18043e+47,1.29506e+48,-2.51814e+48,-8.38196e+47,-1.2853e+48,-2.41602e+48,-1.23807e+48
-1.86334e+45,1.93056e+43,5.85602e+45,1.06342e+46,4.51169e+45,7.5819e+45,-4.54738e+45,2.79794e+45
-5.68201e+50,7.52393e+50,4.24871e+50,2.36246e+50,1.3718e+51,2.77432e+51,-3.13182e+51,-1.18349e+51
-3.05305e+49,-5.20642e+49,-2.86159e+49,-6.59488e+49,-6.12931e+49,-6.59068e+48,1.75121e+49,2.73714e+49
-8.61859e+46,-3.30684e+46,-9.16205e+46,-9.12114e+46,-2.48473e+47,-2.34379e+47,6.23619e+46,5.04485e+46
-1.46366e+46,-2.74153e+46,-1.41863e+46,-1.62826e+46,-3.5809e+46,-2.72869e+46,7.90666e+46,2.24002e+46
2.65847e+44,-1.41789e+45,-7.70697e+44,-1.59839e+45,-1.01889e+45,-1.70539e+43,1.51618e+44,1.15963e+45
3.01784e+46,-8.22116e+46,-6.91623e+46,-7.22009e+45,-9.52407e+46,-8.42132e+46,1.37617e+47,1.12912e+46
5.86474e+47,4.07305e+47,5.94301e+47,3.21789e+47,1.11498e+48,9.18334e+47,9.51709e+47,-1.56788e+47
-5.44628e+46,-7.37177e+46,-8.25546e+46,-3.51581e+46,-8.69794e+46,-4.96381e+46,9.65974e+46,-1.4941e+47
6.19134e+44,6.91029e+43,-1.56622e+45,-1.65384e+45,-2.03483e+45,-8.36669e+44,7.10768e+44,-2.13182e+45
1.03782e+47,6.24882e+46,2.43467e+46,3.87511e+46,1.885e+47,5.27848e+46,-1.58542e+47,7.73807e+46
7.9055e+43,-1.48164e+45,-1.95418e+45,-1.54896e+45,-1.84951e+45,-4.68174e+44,1.16022e+45,-6.91493e+44
8.7709e+45,3.21381e+46,-7.94782e+44,4.00806e+45,1.4582e+45,3.23091e+46,-1.04258e+46,3.63041e+46
-1.58591e+48,-7.72147e+47,-2.68045e+47,5.22304e+46,-4.25256e+47,-2.4146e+48,1.01511e+48,-9.39085e+47
-9.10631e+44,2.70017e+44,1.11945e+46,1.20173e+46,9.05595e+45,1.34659e+46,-1.39824e+46,1.11972e+46
-2.15463e+45,-1.02149e+45,-6.79691e+45,-4.04878e+45,-4.42351e+45,-2.8065e+45,-1.45986e+45,-8.13902e+44
2.37636e+46,1.93091e+47,7.3284e+46,1.20931e+47,2.92608e+47,1.38103e+47,1.72935e+47,1.54678e+47
6.29664e+45,-3.44491e+45,-2.74415e+46,-6.60916e+45,-8.76899e+45,3.62995e+46,1.75617e+46,-2.07711e+46
-2.43208e+50,-1.38968e+50,-2.06112e+50,-3.11488e+50,-2.66611e+50,4.49778e+50,3.2881e+50,-2.92532e+50
1.17306e+52,1.44506e+53,9.75962e+52,6.26985e+52,2.02465e+53,3.10027e+52,-1.90792e+52,-1.44116e+53
-2.02992e+47,-2.03162e+46,-1.11889e+47,-4.64536e+46,-1.96684e+47,-2.51153e+47,4.63936e+46,1.84497e+47
-3.75378e+50,-2.16404e+50,-3.70429e+50,1.30233e+49,-3.39151e+50,-4.8513e+50,9.72829e+49,2.70293e+50
6.58646e+52,3.3497e+53,3.13881e+53,3.234e+51,1.96265e+53,1.12933e+53,-3.05842e+53,-9.8162e+52
-2.38514e+50,1.64717e+51,5.28073e+50,7.79779e+50,1.24924e+51,8.3573e+50,-4.3279e+50,-1.62156e+50
1.2872e+51,-6.33974e+50,1.25079e+51,1.40626e+51,3.95836e+49,1.26478e+51,3.11817e+50,1.71913e+51
8.38162e+49,-1.51155e+49,-4.40386e+49,-8.40029e+49,-1.73962e+50,-1.83809e+50,-1.62766e+50,-1.44516e+50
-6.57443e+44,3.83588e+45,5.26826e+44,3.57202e+45,5.4016e+45,3.53117e+45,6.27222e+45,1.01665e+45
2.86722e+46,1.3755e+44,3.42787e+46,6.96547e+46,6.06403e+46,3.32336e+45,5.15494e+46,2.48762e+45
-1.02215e+45,-1.78209e+45,-2.98156e+45,-9.66292e+44,-1.67334e+45,-2.40106e+45,-1.78614e+45,-1.1866e+45
-2.83255e+48,-5.72615e+48,-4.95882e+48,-2.82812e+48,-1.12478e+49,-1.09396e+49,-9.2575e+48,-1.29085e+49
3.56598e+46,2.1232e+46,2.28175e+46,1.1504e+46,8.60229e+46,1.22719e+47,9.71897e+46,-2.17032e+46
5.46324e+47,-2.83705e+46,5.76632e+46,1.307e+47,5.93663e+46,2.71532e+47,8.29047e+46,-5.65737e+45
6.70138e+45,-3.17393e+46,-6.68712e+46,-2.16865e+46,-2.03917e+47,-1.13334e+47,4.44548e+46,5.11202e+46
1.29741e+47,-2.49555e+47,-2.48377e+47,-6.85924e+46,-5.40182e+46,-1.75803e+47,7.34599e+45,7.69168e+46
3.14117e+45,-9.50935e+45,-1.40797e+46,-1.17526e+46,-3.38152e+44,-1.2e+46,1.54897e+46,5.80673e+45
-4.56677e+46,1.01388e+47,4.77375e+46,1.31896e+47,1.36586e+47,2.64621e+46,-1.29711e+47,-1.24414e+46
1.32618e+47,1.72549e+47,1.1131e+47,1.86276e+47,2.58779e+47,9.33057e+46,-2.46629e+47,-5.51886e+46
9.51373e+45,-2.14485e+44,4.42514e+45,6.76371e+44,7.29673e+44,4.66904e+44,2.76233e+46,-7.02465e+45
1.09789e+45,-2.50176e+43,2.44517e+45,2.78195e+44,2.11321e+45,2.34931e+45,-2.83287e+45,5.64226e+45
1.17728e+45,8.3141e+44,1.67676e+45,1.21674e+45,1.19266e+45,9.86168e+44,-1.88012e+45,2.84976e+45
-3.32078e+43,1.17077e+45,1.60172e+45,1.42504e+45,5.07412e+43,1.08506e+45,-1.78147e+44,1.10657e+45
-4.98559e+47,1.77868e+48,9.61498e+47,4.22469e+47,1.80016e+48,3.42881e+47,-1.20102e+48,6.19326e+46
1.18987e+50,2.60781e+50,2.022e+50,1.99052e+50,1.56411e+50,2.99851e+50,-1.68772e+50,2.26637e+50
3.23394e+46,-3.32619e+46,-6.18622e+45,-9.94411e+46,-8.67548e+46,-5.23574e+46,3.93011e+46,-2.19892e+46
2.4285e+47,4.11343e+47,4.72598e+47,3.82287e+47,4.91392e+47,5.60141e+47,-3.85737e+47,4.46993e+47
6.45794e+45,-1.17204e+46,3.65323e+46,7.11134e+46,2.51102e+46,7.02493e+45,2.55669e+46,3.93446e+46
6.24625e+46,3.6654e+46,2.50472e+47,1.06474e+47,2.60053e+47,9.29498e+46,2.08765e+47,3.71893e+46
2.23427e+46,3.94838e+46,3.42455e+46,2.74255e+46,2.10532e+46,-3.26385e+46,-1.36373e+46,2.16631e+46
7.02295e+45,-9.62993e+47,-1.63705e+48,-1.47092e+48,-1.23402e+48,6.30554e+47,8.94675e+47,-3.16532e+47
-1.50914e+46,-5.15114e+46,-2.79595e+46,-3.14906e+44,-3.01696e+46,4.63881e+46,7.4912e+45,-5.25399e+46
9.15027e+43,-2.72713e+44,-3.80949e+44,-1.25211e+44,-1.16594e+44,1.20892e+45,-3.20974e+44,-8.90111e+44
-8.44515e+50,-6.87354e+50,-2.30534e+50,-1.07898e+51,-1.01443e+51,1.50844e+50,2.4877e+50,-5.69817e+49
4.49455e+50,4.17058e+50,1.19349e+51,1.34957e+51,1.83988e+51,-6.83173e+50,-1.14902e+51,1.62239e+51
4.34625e+51,-1.52511e+52,-1.10304e+52,-2.65751e+52,-3.33546e+52,1.61761e+52,-1.0742e+52,-3.50989e+52
2.07187e+53,-7.10334e+53,1.81224e+53,-5.73742e+53,-5.44511e+53,1.27658e+52,-1.37536e+53,-8.64735e+53
-7.97908e+53,-1.19736e+53,-4.93078e+53,-3.93947e+53,-2.88927e+53,-8.94255e+52,-6.71623e+52,-8.67601e+53
-1.00217e+49,1.83319e+49,-1.82006e+49,5.02089e+49,3.79093e+49,4.87638e+49,3.19605e+48,2.97475e+49
1.59813e+48,1.72864e+48,-9.90801e+47,3.0705e+48,1.65854e+48,1.41549e+48,6.50365e+47,2.26896e+48
1.3746e+49,7.08901e+48,2.25397e+49,2.49899e+47,2.84307e+49,5.19151e+48,1.80937e+49,3.11058e+49
4.60883e+47,1.21921e+48,5.29287e+46,1.19617e+48,7.27962e+47,1.29495e+47,1.27527e+48,1.21904e+48
2.58506e+49,4.89681e+49,1.00984e+49,5.42419e+49,3.53296e+49,5.23841e+49,1.27303e+49,-4.02906e+48
3.01654e+50,2.47569e+51,4.82606e+50,1.70879e+51,2.01042e+51,8.64007e+50,-1.31092e+51,-2.89159e+51
-1.62326e+51,2.23725e+52,1.86122e+52,2.23958e+52,6.78793e+51,1.78124e+52,-1.09656e+52,-1.50777e+52
9.34067e+46,4.59144e+46,1.56516e+47,6.53936e+46,9.34198e+46,2.54944e+47,-2.30503e+47,-1.71126e+47
-1.66294e+46,-1.96086e+46,-1.65633e+46,1.9067e+44,-2.56132e+46,-6.96952e+45,1.81331e+46,6.97095e+45
4.24009e+45,5.56621e+46,6.14594e+46,2.97527e+46,3.945e+46,7.22904e+46,-6.61967e+46,-7.22364e+46
-1.91397e+46,-3.74511e+45,-2.37084e+46,-8.6726e+46,-4.266e+45,-5.55882e+46,7.45437e+46,6.78191e+45
-1.43651e+46,2.66566e+47,2.46705e+47,-1.46178e+47,2.09897e+47,1.02686e+47,-3.24854e+46,1.50315e+47
9.02169e+43,2.6736e+44,6.77703e+44,3.6533e+44,3.28649e+44,5.2288e+44,6.72975e+44,6.68395e+44
1.43652e+47,2.05713e+47,2.46943e+47,6.30897e+46,3.08042e+47,1.32909e+47,-1.6257e+47,3.01631e+46
-1.49225e+47,-5.49754e+46,-1.01653e+47,6.92584e+45,-2.55057e+47,-2.67407e+47,8.92816e+46,-1.20516e+47
5.84914e+46,3.89931e+46,4.4255e+46,2.40778e+46,3.27671e+46,8.01166e+46,-2.36996e+46,9.53031e+46
-1.53404e+47,1.42984e+48,-6.89654e+46,1.15815e+48,1.21662e+48,4.13744e+46,-5.36469e+47,1.87089e+48
-8.97979e+48,-1.28654e+48,-5.58603e+48,-7.58683e+47,-1.59217e+49,-1.44008e+49,-2.55837e+48,-1.01152e+49
6.11585e+43,-2.84906e+44,-2.19693e+44,-3.75034e+44,-4.42967e+44,-1.09563e+44,-2.98981e+44,-2.36547e+44
5.76989e+48,5.38987e+48,1.75535e+48,1.12298e+48,6.98718e+48,2.82118e+48,3.91573e+48,1.45879e+48
1.54297e+46,-2.49646e+46,-4.74345e+46,-4.94853e+46,1.55462e+44,-4.73254e+46,-8.4518e+46,-3.7305e+46
3.696e+45,-6.53729e+46,-4.23681e+46,-1.56011e+47,-3.82225e+46,1.14466e+47,6.3238e+46,-4.34747e+46
1.69051e+47,9.37262e+46,1.96529e+47,1.86119e+47,8.77394e+46,-4.4008e+46,-2.5083e+47,2.35041e+47
-4.7516e+45,6.42206e+46,-4.75398e+45,1.91979e+46,7.65964e+46,-7.7972e+46,-7.20395e+46,5.33224e+46
7.67583e+46,-2.465e+44,1.42105e+47,1.67538e+47,7.77451e+45,-1.96453e+46,-1.31763e+47,1.8247e+47
4.60657e+44,-4.08999e+45,-1.41358e+45,-4.74402e+45,-2.19706e+45,9.32034e+43,7.73118e+44,-1.01254e+45
1.57296e+47,-6.93478e+47,-4.01679e+48,-3.09299e+48,-2.31746e+48,1.35656e+48,3.93397e+48,-1.14642e+48
-1.00594e+48,-8.92301e+47,-9.22238e+47,2.51924e+46,-5.78321e+47,1.38767e+48,1.10811e+48,-2.78461e+47
-1.4218e+51,-1.66482e+51,-5.54637e+50,-1.22988e+51,-1.98919e+50,1.1593e+50,-8.80107e+50,-3.59735e+50
1.26189e+51,3.91649e+50,1.24881e+51,2.33899e+50,6.29996e+50,1.24899e+51,1.58048e+51,9.71166e+50
-6.46067e+49,-6.75965e+49,1.13198e+50,-4.23918e+49,-6.65733e+48,-8.42991e+49,-1.14198e+50,-1.59404e+49
-9.77978e+45,-9.45323e+44,1.27316e+46,2.19495e+46,6.06555e+46,2.84948e+45,6.07189e+46,3.01017e+46
-5.41233e+46,7.39055e+47,2.74543e+47,2.5919e+47,6.30503e+47,1.15028e+48,1.36215e+48,3.18828e+47
-8.50297e+44,-4.15634e+45,4.74838e+44,-6.47662e+44,-2.8682e+45,-3.12862e+45,-1.32826e+45,-1.35899e+45
2.75132e+44,5.31532e+45,-3.34859e+45,1.12456e+46,3.89056e+45,6.46741e+44,1.16319e+46,2.43901e+46
-1.40033e+46,-1.34395e+46,-7.33542e+45,1.17713e+45,-9.26644e+44,-1.72757e+45,1.47227e+46,1.4802e+46
-3.20841e+46,-1.87125e+48,-3.02721e+48,-2.62859e+48,-6.33123e+46,-2.83017e+48,2.12488e+48,1.0153e+48
8.28149e+43,2.47693e+44,3.71165e+44,1.53984e+44,1.82575e+44,3.5147e+44,-1.78886e+44,-5.58425e+44
-5.71602e+46,-2.12368e+45,2.14121e+47,1.30022e+47,1.37865e+47,2.40276e+47,-7.85176e+46,-2.11882e+47
-3.88364e+45,1.5512e+44,-1.56962e+46,-7.10352e+44,-7.4532e+45,-1.55508e+46,7.12965e+45,1.73127e+46
1.3597e+47,-9.28452e+46,-1.51749e+47,-2.11524e+47,-2.17315e+47,-1.65859e+47,1.54844e+47,2.55007e+47
1.75185e+43,-2.08972e+45,-8.62278e+45,-2.45551e+45,-8.72343e+45,-5.51923e+45,-3.38664e+45,-7.1421e+45
-3.00824e+44,-8.92515e+44,-3.2151e+44,-6.09869e+44,-9.30054e+44,-8.18433e+44,-1.64289e+44,-1.49887e+45
-1.01965e+46,-2.04373e+46,-2.25593e+46,3.32483e+45,-1.10645e+46,-4.3476e+45,-1.2036e+46,-1.56407e+46
4.86539e+46,3.4145e+46,4.07747e+46,3.20381e+46,2.58569e+46,5.54817e+46,-1.33038e+46,2.7299e+46
2.48165e+46,2.19281e+47,2.68581e+47,3.54427e+47,5.18522e+46,7.75376e+46,9.23948e+46,2.87486e+46
-2.44902e+45,-4.84028e+44,-1.11692e+45,-2.5686e+45,-4.4589e+44,-4.12435e+45,-3.57983e+45,-3.07818e+45
1.91982e+45,6.67904e+44,3.74485e+44,1.25713e+45,2.36791e+45,4.3836e+44,7.88807e+44,5.31971e+44
5.98257e+46,2.75535e+47,1.59696e+48,2.15994e+48,1.54467e+48,1.30702e+48,1.59516e+48,2.25103e+48
3.20281e+46,6.54874e+46,-4.95385e+45,9.08955e+45,-1.79437e+44,5.03116e+46,7.49696e+46,7.79359e+46
3.37236e+44,2.01398e+45,2.47334e+45,1.71258e+45,2.49795e+45,2.12048e+45,1.00257e+45,1.2962e+45
-3.98806e+44,-4.83185e+44,-2.66902e+40,-4.00188e+44,-7.62692e+44,6.00429e+44,1.72874e+44,-8.87596e+43
-2.30815e+45,-6.32025e+46,-7.47955e+46,-5.09135e+46,-4.09933e+46,1.97256e+46,8.96602e+46,-1.07972e+46
2.31275e+47,2.99371e+47,9.18525e+46,7.98678e+46,2.17272e+47,-3.11175e+46,-1.38178e+47,1.06058e+47
1.84186e+47,1.63642e+47,2.24259e+47,-1.82277e+45,2.08587e+47,-2.19386e+47,-2.19386e+47,3.69068e+46
3.23465e+44,1.65131e+44,1.44696e+44,3.2386e+44,1.35841e+44,-2.29063e+44,-4.43319e+44,3.55429e+44
-2.24909e+44,1.92297e+43,-3.3869e+44,-2.14912e+44,-5.60196e+44,2.20042e+44,9.30354e+43,1.02731e+42
-8.8934e+44,-1.03847e+46,-1.61774e+46,-1.33668e+46,-2.08326e+45,6.51219e+45,2.344e+45,-1.48075e+46
2.99727e+46,2.10322e+46,3.27007e+46,1.95581e+46,4.35769e+46,-1.34049e+46,-4.29967e+46,5.39255e+46
-6.08357e+45,1.47512e+46,-7.18859e+45,1.5483e+46,2.38428e+46,2.50835e+46,-9.11115e+45,8.98718e+45
-1.77936e+47,-1.84338e+46,-2.83047e+47,-4.38862e+46,-8.65212e+46,-9.3074e+46,4.60397e+46,-7.90537e+46
-1.18798e+45,1.31923e+45,1.10268e+45,4.08842e+44,7.40824e+44,8.71377e+44,-1.62423e+44,1.19919e+45
1.40165e+46,-2.86672e+45,-1.12892e+46,-4.88542e+45,2.8631e+43,-2.86767e+46,-1.87049e+45,-3.13913e+46
2.53948e+44,-1.70607e+45,3.68128e+44,-9.53248e+44,-1.0918e+45,-7.1713e+43,-1.19208e+45,-2.94836e+45
7.48274e+43,9.56545e+43,1.38775e+44,1.01633e+44,2.67193e+44,-4.21171e+44,4.04094e+44,3.8499e+44
-5.89661e+44,5.28493e+45,3.88659e+45,2.1531e+45,5.669e+45,-2.33061e+46,2.35335e+46,2.60032e+46
-2.03852e+45,-5.4673e+43,2.42212e+46,2.20954e+46,2.10692e+45,1.78532e+46,2.85374e+45,9.42178e+45
8.96205e+46,8.7473e+46,1.6257e+47,2.38659e+47,1.16388e+47,2.71572e+47,-9.18181e+46,-1.88205e+47
-2.36067e+46,2.80519e+46,4.36323e+45,1.87277e+46,2.99357e+46,2.00593e+46,-2.46602e+46,-4.83617e+45
5.06571e+45,-4.94922e+46,-3.23247e+46,-2.95073e+46,-2.29531e+46,-5.46522e+46,3.9646e+46,1.56305e+46
-1.75748e+44,3.86967e+44,1.71424e+44,4.03658e+44,7.12421e+43,3.94098e+44,-9.25466e+43,-3.14927e+44
-6.89848e+44,-3.52463e+44,-6.82256e+45,2.35954e+45,-6.42134e+45,-1.95712e+45,-6.14785e+44,-6.11911e+45
-2.56978e+47,-3.43922e+47,-8.77898e+47,-2.93453e+47,-2.17655e+47,-1.00952e+48,-1.00666e+48,-6.78905e+47
2.84427e+45,-8.13881e+45,-2.47297e+45,-2.29117e+46,-2.18879e+45,-5.36834e+45,-4.85491e+45,-5.57365e+45
-3.1097e+46,-2.44395e+46,-3.49355e+44,-2.7292e+46,-2.67499e+46,-7.00602e+45,-8.61353e+45,2.25807e+46
-1.13473e+46,-3.99881e+46,-1.28697e+46,-4.6646e+45,-3.62363e+46,-2.34036e+46,-1.76179e+46,-2.20575e+46
-2.88493e+45,-1.81655e+46,-7.47879e+45,-2.52631e+46,-5.72283e+45,-1.36076e+46,-1.42555e+46,3.61332e+42
5.07115e+48,-7.94395e+48,-1.14174e+49,-8.24428e+48,-5.60093e+48,-4.82486e+48,-4.98427e+48,-1.5281e+49
7.76533e+43,2.04006e+44,2.40777e+44,3.43956e+44,4.08749e+44,1.55995e+44,1.56178e+44,7.65952e+44
-1.62808e+47,-1.49065e+47,-2.95475e+47,-6.12899e+46,-2.8487e+47,-9.40402e+46,-1.44439e+47,-5.80606e+42
3.93546e+46,1.04589e+47,1.08936e+47,8.25629e+46,1.25436e+47,5.19694e+46,6.71049e+46,5.70152e+46
-9.35742e+45,8.90053e+46,3.39249e+46,5.16547e+46,4.38108e+46,-3.84832e+46,-3.42444e+45,1.24357e+46
-2.85471e+45,-1.15969e+46,-7.08092e+45,-2.19226e+46,-1.65376e+46,1.10377e+46,1.33734e+46,-1.44113e+46
3.32542e+47,1.00448e+47,1.4863e+47,1.96304e+46,2.15044e+47,7.40041e+45,-1.46591e+47,9.14257e+46
1.65604e+46,2.92191e+47,-9.97186e+45,2.12572e+47,1.11391e+47,-1.46136e+47,-2.66648e+47,4.10126e+45
5.78895e+43,-3.79922e+44,-3.67989e+44,-8.40571e+44,-1.00463e+45,8.67997e+44,4.33705e+44,-6.66787e+44
-4.74247e+43,3.53791e+44,1.28496e+45,9.09973e+44,2.07572e+44,-3.47221e+44,-4.90653e+44,1.07042e+45
9.74676e+44,1.27787e+45,6.03714e+44,-8.12449e+43,2.73085e+44,-3.98434e+43,-1.43102e+45,1.22753e+45
-9.0061e+44,-5.96148e+44,-1.89094e+45,-1.28684e+45,-3.93608e+45,-1.60487e+45,3.7232e+45,8.93748e+44
-1.36086e+43,-6.97494e+45,-1.94871e+45,-4.31955e+45,-1.72149e+44,-1.91185e+44,5.32362e+45,3.81161e+43
1.81947e+45,-2.4745e+45,-6.34397e+44,-2.97873e+45,-6.5185e+44,-2.30229e+45,4.20291e+45,-3.74092e+45
4.4967e+44,4.7713e+44,4.01998e+44,4.08113e+44,1.11626e+45,-1.87723e+43,-4.07662e+44,1.2371e+45
9.05298e+45,-7.10737e+46,-3.62912e+46,-7.34624e+46,-2.95927e+46,-4.5387e+46,7.68252e+46,-6.80651e+46
1.70819e+49,-2.84096e+48,-6.16556e+47,1.3062e+49,2.37228e+49,1.34326e+49,-1.41203e+49,1.54311e+49
9.84796e+45,5.19918e+46,2.39205e+46,8.11579e+46,6.09979e+46,-6.69154e+46,2.00792e+46,1.20035e+46
-8.71892e+46,-3.34654e+46,-1.47831e+46,-1.33501e+47,-3.74537e+46,5.81851e+46,-5.36709e+46,-9.32408e+46
-1.51575e+47,-3.69337e+45,7.00915e+46,-2.48954e+46,1.01312e+47,2.5123e+47,-3.19342e+47,-2.48067e+47
7.91827e+46,-1.34937e+47,-4.93301e+46,-5.31408e+46,-1.46166e+47,-2.52693e+47,1.86491e+47,2.4776e+47
-9.35369e+46,6.34723e+46,1.24277e+47,1.55331e+47,6.00824e+46,1.15401e+47,-1.87837e+47,-1.71146e+47
6.62441e+46,1.85283e+45,2.53249e+46,-6.78545e+46,1.16517e+46,-3.02834e+46,2.17703e+47,2.1305e+47
-1.25536e+46,-4.6688e+46,-7.94702e+45,1.02457e+46,-2.27661e+45,-9.67793e+44,-5.75547e+46,-3.89494e+46
2.57094e+44,1.46272e+45,3.90132e+44,-5.19732e+44,3.7439e+44,1.87999e+44,2.89251e+44,9.16542e+44
-3.14291e+47,-1.27181e+47,-3.51925e+47,-2.15384e+47,-1.91125e+47,-1.78305e+47,-9.12832e+46,-4.5397e+46
-6.76773e+50,-5.29539e+50,-6.44214e+50,-5.74925e+49,-7.95563e+50,-1.02023e+51,-8.28528e+50,-3.04281e+50
4.6195e+48,-2.36901e+49,-4.89848e+49,-1.82232e+49,-2.59851e+49,-2.12078e+49,-2.12598e+49,-2.38073e+49
-1.46589e+45,1.04757e+45,4.55694e+45,5.94233e+45,2.26202e+46,7.13653e+44,2.24196e+46,2.21831e+46
4.47998e+46,9.89778e+46,4.4166e+46,9.62729e+46,5.15425e+46,3.15679e+46,4.29307e+46,7.5764e+46
2.82548e+46,1.44925e+45,-1.43183e+46,-7.99932e+46,-8.31907e+46,-1.52361e+46,-1.52365e+46,-2.68857e+45
-9.10951e+43,-6.69856e+44,-2.69705e+44,-6.54937e+43,-1.97011e+44,-2.22247e+44,-6.19184e+44,-3.81037e+44
-1.06665e+44,-4.81385e+44,-2.25011e+44,-2.95875e+44,-1.31731e+44,-3.05841e+44,-2.07778e+44,-2.71322e+44
1.38636e+45,1.66491e+45,5.36061e+45,1.19651e+44,3.62168e+45,6.78309e+45,8.24011e+45,4.80057e+44
1.56219e+45,1.42941e+45,6.95375e+44,1.90346e+45,1.48886e+45,-2.36797e+45,-2.55954e+44,1.92792e+45
1.22775e+52,-1.63066e+52,-3.73683e+52,-3.57321e+52,-8.73838e+51,3.70115e+52,1.38532e+52,-4.16432e+52
-1.23784e+49,1.58104e+50,-4.83094e+48,4.49524e+49,7.35522e+49,-1.6807e+50,-5.52414e+49,1.18707e+50
8.65521e+47,3.75036e+48,2.32008e+48,8.36277e+47,1.85216e+48,-3.43993e+48,-3.14347e+48,7.8338e+47
-1.28673e+46,-1.53471e+46,-1.78371e+46,-1.34074e+46,-1.12143e+46,1.98274e+46,1.08175e+45,-7.82852e+44
1.82672e+46,4.60675e+46,2.19529e+46,4.68713e+46,6.53829e+46,-8.17492e+46,-7.00892e+46,1.24069e+47
-2.81729e+46,2.81553e+47,5.27709e+46,2.17455e+47,1.92509e+47,-8.40026e+46,-1.30704e+47,2.11204e+47
1.05188e+47,2.93921e+47,7.649e+46,-1.00705e+47,9.03942e+46,3.85037e+45,9.44171e+45,-4.39127e+45
-3.96303e+46,-1.23784e+47,-1.68411e+47,-1.76004e+47,-2.81485e+46,-6.26729e+45,3.27192e+46,-2.42194e+47
1.877e+45,8.55047e+43,3.09448e+45,3.32054e+45,3.60014e+45,3.30449e+45,-3.45512e+43,3.63448e+45
9.51849e+44,1.25223e+45,7.7199e+44,1.37914e+45,2.6434e+44,1.38903e+45,-5.8647e+44,3.56822e+44
1.79512e+46,1.98676e+46,2.39636e+46,7.30588e+45,4.22312e+46,4.92381e+46,-7.26774e+46,4.00437e+46
5.30896e+46,4.11872e+46,2.58413e+46,2.08246e+46,6.5537e+45,6.43764e+46,-2.00785e+46,2.38645e+46
-3.5992e+45,-4.76171e+45,-4.24804e+45,-9.36783e+45,-3.70803e+45,-1.2002e+45,6.39202e+45,-6.60379e+44
3.35648e+47,-5.48466e+47,-3.07542e+47,-1.60341e+47,-3.42131e+47,5.50952e+47,-1.49577e+47,-3.318e+47
-2.23635e+47,-1.42026e+47,-4.04161e+47,5.4151e+46,-4.94687e+46,4.28021e+47,-2.47886e+47,-3.89521e+47
-2.87912e+46,6.89916e+46,5.93163e+46,6.07179e+46,1.50409e+47,-9.60592e+46,5.19774e+45,2.25514e+46
2.7366e+45,6.02919e+44,7.04478e+44,-5.39479e+44,1.85661e+45,-1.90046e+45,3.48357e+44,1.12244e+44
-3.04641e+49,9.1004e+49,7.48464e+49,8.67543e+49,9.38582e+49,-1.51707e+49,9.85848e+49,5.01761e+49
5.94428e+49,6.13316e+49,6.36008e+48,2.78415e+48,8.30299e+49,8.42172e+49,4.57879e+49,5.88375e+48
2.09683e+48,-1.08153e+48,-4.10235e+48,-4.70067e+48,-5.04581e+48,-2.43791e+48,-5.49486e+48,-3.76085e+48
6.55454e+51,4.35668e+51,4.97722e+51,5.17772e+51,5.08053e+51,8.12852e+49,3.41546e+51,9.1849e+51
1.44128e+52,2.09274e+51,4.11546e+51,-4.89682e+51,3.01169e+51,6.72756e+51,1.01938e+52,2.59855e+52
-5.69159e+52,-1.05614e+53,-1.62722e+53,5.4324e+52,-5.96503e+51,-1.71578e+53,-2.59185e+53,-6.04979e+52
1.2216e+45,-1.34102e+43,1.60518e+45,5.31128e+44,1.75469e+45,1.04617e+45,1.0904e+45,1.78045e+45
-3.44467e+46,-4.95363e+46,-1.45607e+47,-5.93932e+46,-4.80905e+46,-1.9677e+47,-2.32556e+47,-1.20111e+47
-1.09983e+47,-4.60355e+46,-2.00613e+45,-1.67105e+47,-1.10686e+47,-1.41863e+47,-1.851e+46,-1.15174e+47
-6.4733e+43,2.23853e+44,3.6899e+44,8.15148e+43,3.68018e+44,5.95717e+44,2.15329e+44,5.53705e+44
7.14534e+45,6.34506e+45,-2.92867e+42,1.3074e+46,1.37926e+46,1.15823e+46,6.75312e+45,1.20932e+46
7.55405e+42,-4.20462e+44,-2.67924e+44,-4.2428e+44,-2.82981e+44,4.59251e+43,-2.92629e+44,-4.77697e+44
2.09515e+47,3.81702e+46,1.80508e+46,3.9328e+46,1.9634e+47,-2.54455e+45,-1.24183e+46,3.21634e+46
8.11003e+50,-3.24859e+50,3.24528e+51,8.24349e+51,9.81104e+51,-7.79492e+50,-8.62782e+51,1.17683e+51
1.81719e+53,4.1385e+53,2.55742e+53,1.48302e+53,2.00848e+53,-3.63447e+53,-5.43856e+53,3.47034e+53
-4.63895e+44,-2.61363e+44,-3.32327e+44,-3.4292e+43,-3.59046e+44,1.33282e+44,-4.94224e+43,1.83462e+44
-1.78699e+48,-6.7867e+48,-8.25252e+48,1.48218e+47,-6.05751e+48,3.32505e+48,3.26475e+48,-9.92128e+48
-1.96481e+46,-1.13923e+47,-1.4318e+46,-2.61107e+46,-2.88232e+46,-1.35764e+47,3.47813e+46,2.0897e+47
1.02994e+47,1.19229e+47,1.22159e+47,6.00558e+46,9.1741e+46,6.50946e+46,-3.66432e+46,-3.19233e+46
9.59224e+43,-1.47178e+44,-4.00993e+44,-3.33596e+44,-6.73835e+43,-4.30132e+44,4.90587e+44,-1.04161e+44
-6.72572e+44,2.81549e+44,1.06651e+45,2.1476e+44,1.27161e+45,1.50359e+45,-3.2939e+44,-1.02865e+45
-8.12098e+43,3.18092e+44,6.81823e+44,1.36761e+44,3.53135e+44,2.63807e+44,-5.88991e+44,-1.11053e+45
-2.31328e+46,1.42146e+47,-6.32474e+45,5.51966e+46,9.14614e+46,1.59525e+47,-1.57851e+46,2.02727e+47
1.69991e+44,1.56546e+44,3.09605e+44,3.67692e+44,1.01179e+44,3.88219e+44,-1.80982e+44,1.16972e+44
-1.11412e+45,9.57981e+45,5.68496e+45,2.69785e+46,1.19995e+46,1.07058e+46,-2.73286e+46,1.92415e+46
2.34239e+45,6.19473e+44,3.1119e+44,3.58749e+45,4.89767e+43,1.6781e+46,-1.70432e+46,6.71162e+44
-1.71506e+45,-1.73039e+44,-6.11277e+42,1.0885e+46,1.44339e+46,-4.53768e+45,6.03777e+45,8.87959e+45
-5.25827e+43,2.409e+44,9.56639e+43,2.56429e+44,2.68996e+44,-1.16169e+44,2.1035e+44,9.12466e+44
4.69125e+45,-1.67904e+46,-4.97392e+45,-2.5309e+44,-1.74625e+46,1.50065e+46,-1.30922e+46,-9.02234e+45
1.64318e+48,1.23462e+47,3.53478e+47,1.57387e+47,2.15808e+47,1.70098e+47,2.10588e+47,-2.48176e+47
4.11529e+47,-5.86932e+46,6.02463e+47,4.44106e+47,1.76648e+47,-2.15642e+47,4.69815e+47,-9.77277e+46
3.36472e+49,-1.12601e+49,5.35464e+50,-4.74654e+49,5.15841e+50,9.4916e+50,2.39871e+50,8.53939e+50
-1.90368e+47,-1.21916e+47,-8.08964e+46,-1.96936e+46,-1.27685e+46,1.77307e+46,-1.26057e+47,-2.40953e+47
-1.43462e+47,-1.82252e+47,-3.74072e+47,-3.88347e+46,-6.41606e+47,-2.8543e+47,-5.55326e+48,-5.41258e+48
-6.1288e+44,1.48891e+43,-2.57387e+45,9.05722e+44,-2.06731e+44,-1.80666e+45,4.09862e+45,3.44863e+45
-1.76305e+50,2.5626e+50,-1.45173e+50,6.09849e+51,5.15634e+50,2.14448e+50,1.21665e+52,1.24102e+52
4.73108e+46,-2.80061e+47,-2.14136e+47,3.4593e+45,-1.16108e+47,-1.57588e+47,-1.75425e+47,3.05019e+46
1.03644e+44,2.40596e+44,1.24463e+45,4.45851e+43,1.9114e+44,6.89156e+44,1.18907e+45,1.09225e+45
-1.27167e+45,-3.82997e+44,-2.11426e+45,5.02117e+43,-3.37783e+44,-2.13582e+45,-1.82904e+45,-1.629e+45
-7.03191e+46,-5.37226e+46,-1.27786e+46,-7.50411e+46,-1.10776e+47,-1.30004e+47,-1.58152e+42,-7.83084e+46
8.29707e+44,1.7478e+45,1.39236e+45,1.18998e+45,2.59975e+44,1.61324e+45,1.7167e+45,2.60816e+45
7.9161e+44,-7.4918e+44,-1.54833e+44,-5.2547e+45,-3.0512e+45,4.69489e+44,-4.86519e+45,-8.42181e+44
9.2005e+44,-1.58523e+45,-9.35595e+44,-9.22765e+44,-8.89428e+44,1.95606e+45,2.45299e+45,-8.35953e+44
1.00339e+55,-2.90438e+55,-1.80937e+55,-3.84685e+55,-5.53957e+55,5.48975e+55,1.07814e+54,-1.07081e+54
-3.093e+55,1.97439e+55,1.76529e+55,4.13991e+55,1.0117e+55,-1.19741e+55,-1.32797e+55,1.44907e+55
-2.94878e+53,-1.03639e+54,-1.53632e+53,-1.18517e+54,-6.45341e+53,1.61933e+54,2.51646e+53,-5.78839e+53
4.26962e+49,3.28784e+48,5.10973e+49,4.74849e+49,6.4705e+49,1.64967e+50,-1.59232e+48,-1.4624e+50
1.06071e+47,-6.69625e+47,-5.01932e+47,-5.41918e+46,-6.55978e+47,-6.19805e+47,-8.52582e+46,1.08887e+48
1.30416e+49,9.68857e+49,2.04629e+49,4.36759e+49,1.76445e+49,8.65733e+49,-5.30157e+49,-3.96401e+49
1.42801e+47,7.85651e+46,1.7133e+46,1.68852e+47,1.45194e+47,2.35147e+47,-1.99169e+47,-2.14329e+47
3.5729e+44,6.75933e+45,9.17408e+45,3.36265e+44,6.99334e+45,1.40834e+46,-1.22145e+46,-5.92534e+45
-1.02043e+46,-2.16797e+46,-2.36744e+46,-1.14056e+46,-1.08275e+46,-1.35373e+46,1.81637e+46,2.72223e+46
6.86437e+45,-2.24993e+46,-1.25021e+46,-1.43317e+46,-1.91909e+46,-8.24952e+45,1.15625e+46,1.51218e+45
-2.08907e+45,-1.85838e+44,9.16658e+45,5.30499e+44,-9.24563e+44,-4.29767e+44,-2.30155e+45,3.244e+45
-1.86649e+49,-9.91585e+48,-2.3049e+49,-2.62504e+49,-2.03137e+49,-1.82137e+49,5.44143e+49,-4.94106e+48
-1.00625e+51,2.2918e+50,-3.29263e+50,1.94857e+50,3.89555e+49,-1.42464e+51,3.74172e+51,5.24131e+50
4.21975e+49,8.01857e+49,4.16973e+49,1.49555e+50,9.63196e+49,-1.22003e+50,4.45005e+49,1.08756e+50
-3.72011e+48,1.3996e+48,3.25865e+48,5.04193e+48,3.67344e+48,-3.83451e+48,4.57067e+47,3.42997e+48
1.46625e+48,-2.79157e+48,-1.12075e+48,-3.61879e+48,-4.14315e+48,3.29875e+48,-1.25235e+48,-2.47642e+48
-5.22647e+50,-1.53214e+49,-4.27565e+50,-3.91657e+50,-2.76212e+50,3.65713e+49,-5.1708e+50,-1.7091e+50
4.21972e+47,1.48214e+47,6.29517e+47,7.93537e+47,1.22333e+48,3.88751e+47,2.90197e+47,-8.2264e+46
-7.61416e+47,-2.6984e+48,-3.75561e+46,-3.12267e+47,-3.08011e+48,-2.2011e+48,-5.2374e+47,-2.00394e+48
2.48069e+48,9.76151e+47,8.84867e+48,-1.51969e+47,9.08273e+46,2.82633e+48,-2.08834e+49,-1.56371e+49
-3.42648e+48,2.28464e+49,9.30132e+48,6.54923e+48,2.48975e+49,2.55942e+49,-9.77332e+48,-2.06274e+49
2.7567e+47,9.91382e+46,3.39918e+47,4.20284e+47,5.27109e+47,7.79202e+47,-6.15967e+47,-1.53147e+47
1.38654e+47,-1.0133e+49,-4.48903e+48,-6.22591e+48,-2.11353e+48,-3.61554e+48,7.80591e+48,4.56401e+48
-3.59968e+46,-1.09239e+46,8.50608e+46,-3.37975e+46,1.01518e+47,8.45526e+46,-3.63096e+47,-2.88314e+47
-6.73057e+45,-2.53785e+45,1.56529e+46,4.52249e+46,5.77315e+45,4.11635e+46,7.35705e+46,8.58681e+46
3.18339e+49,2.08321e+49,3.35759e+49,8.56539e+49,1.97424e+49,4.66521e+48,7.87013e+49,5.16415e+49
-1.30626e+47,-2.65249e+47,-2.69179e+47,-3.19696e+46,-2.1545e+47,9.96669e+46,-3.75432e+47,-3.05083e+47
1.18387e+49,2.41459e+49,6.824e+49,2.86091e+49,4.72058e+49,-3.09444e+48,6.20104e+49,5.16778e+49
-1.29721e+47,-6.31e+46,1.26748e+46,2.38891e+46,1.69944e+46,-3.58634e+46,2.86316e+47,9.5544e+46
-4.69223e+46,-2.0717e+46,-1.08103e+47,-1.96776e+47,-1.43441e+47,1.36533e+47,2.12835e+47,-2.06769e+47
-1.44901e+55,-5.67946e+54,-3.59775e+55,-3.96532e+55,-3.98e+55,3.75179e+55,1.98209e+55,-2.9027e+55
-4.24804e+58,-3.2546e+57,-1.46143e+58,-1.62213e+58,-2.47776e+58,-2.70196e+57,1.62829e+58,-7.09486e+57
-9.08894e+52,-3.40726e+53,-3.58353e+52,-2.82348e+52,-2.34656e+53,2.96937e+53,2.32073e+53,-7.08305e+53
-4.15982e+53,5.78894e+51,-5.8265e+53,-9.67561e+53,-1.16659e+54,-1.27197e+54,1.33663e+54,1.49017e+54
1.30578e+52,-1.41239e+51,2.72545e+52,4.37293e+52,1.5506e+52,1.52164e+52,-5.55681e+52,-1.66535e+52
7.13458e+52,3.00378e+52,6.46947e+52,6.51874e+52,1.23496e+53,2.13723e+52,-7.83562e+52,-4.8774e+52
-8.29842e+42,1.69367e+43,-1.13396e+45,-1.98324e+43,-6.0719e+43,-1.21812e+45,1.06116e+45,5.77185e+44
-4.92748e+43,-4.62358e+44,-3.89879e+44,-1.26289e+45,-1.0513e+45,-4.80268e+44,6.00553e+44,8.91148e+44
4.72455e+46,6.08503e+46,1.30446e+47,3.87494e+45,2.2185e+47,2.47784e+47,-8.44504e+46,-1.1129e+47
2.58681e+46,4.92454e+46,-1.48037e+46,7.49904e+45,6.28363e+46,2.26823e+46,-1.44274e+46,2.50681e+46
8.62389e+46,1.95629e+46,2.21611e+46,2.04116e+47,3.5989e+47,1.5212e+47,-4.1065e+46,1.75464e+47
3.10996e+49,-1.44679e+49,-7.93557e+49,-5.51096e+49,-1.20188e+50,-3.7594e+49,-1.11865e+50,-1.77898e+50
-9.4134e+50,1.60608e+51,9.7549e+50,1.45361e+49,4.39756e+49,7.20177e+50,8.54037e+50,2.6003e+51
-8.78878e+48,1.33143e+49,-7.90543e+48,7.58409e+48,3.39709e+49,3.48491e+49,3.61502e+49,1.74126e+49
5.67225e+48,8.44962e+48,3.30583e+48,1.64902e+49,1.48266e+49,-6.85275e+48,9.34703e+48,1.16903e+49
-3.99727e+46,4.45887e+46,1.12035e+47,1.76369e+47,1.30804e+47,2.45739e+47,-1.35374e+47,1.44942e+47
6.74679e+48,-4.67781e+48,-9.78868e+48,1.88512e+48,-1.66855e+47,-8.21568e+48,-1.93748e+47,-3.98853e+48
-1.28573e+46,2.19673e+46,3.74215e+46,-1.28972e+46,2.61275e+46,4.18706e+46,5.93416e+45,-3.65291e+46
-2.91992e+45,5.84777e+45,7.4369e+45,3.17236e+45,3.75574e+45,5.29597e+45,-1.72665e+45,-5.19026e+44
6.76755e+45,8.16437e+45,1.26894e+46,7.39324e+45,1.64579e+46,3.89769e+45,-6.6409e+45,-1.6451e+46
-1.67347e+52,-1.56631e+53,-1.76607e+53,2.92892e+52,-1.58264e+53,-3.34711e+52,8.28318e+51,1.30796e+53
1.01348e+49,-5.77899e+47,1.89929e+49,3.37402e+48,1.39654e+49,1.51938e+49,-1.71618e+49,-2.97955e+48
5.27274e+45,-8.9844e+45,-1.57219e+46,-2.15663e+45,-3.60613e+46,-2.95987e+46,9.26692e+45,1.21048e+46
5.81499e+44,1.04202e+45,1.03838e+45,6.91815e+44,2.9228e+44,5.98914e+44,-4.70883e+44,-3.90988e+44
-6.63954e+46,1.2293e+47,1.35e+47,6.15319e+47,4.25726e+47,5.3602e+47,9.19936e+47,1.10391e+48
3.23549e+44,2.38259e+44,7.95409e+44,1.07824e+45,5.10841e+44,-3.22489e+45,5.46926e+44,7.86547e+44
1.68954e+53,1.57332e+53,1.99951e+53,2.57734e+53,2.6112e+53,-5.4183e+52,3.17128e+52,2.08584e+53
6.21796e+46,5.00967e+46,-9.24049e+45,1.52054e+47,7.13012e+45,-1.35635e+47,1.42647e+47,2.62951e+47
-5.92561e+46,-1.3717e+47,-3.38166e+46,-1.10904e+47,-1.28853e+47,4.7817e+46,-2.13008e+47,-1.97032e+47
-4.13964e+46,2.56635e+45,-5.5322e+46,-3.32922e+46,-2.10229e+46,3.40585e+46,3.44475e+46,-5.58816e+46
-1.62584e+55,-2.30834e+55,-2.10839e+55,-1.40512e+55,-2.10317e+55,2.47872e+55,8.12268e+53,-2.08015e+55
-3.37954e+57,4.7786e+57,1.36083e+58,9.11124e+57,8.39388e+57,2.08896e+57,-5.18888e+57,1.50135e+58
-1.50302e+53,1.93579e+53,2.9848e+53,2.21545e+53,2.94136e+52,-3.16574e+53,2.65202e+53,5.70046e+53
4.7773e+50,1.0037e+50,1.27916e+51,9.43387e+50,1.52819e+50,7.06974e+50,-1.95145e+51,-1.50085e+51
-1.30517e+51,-2.20354e+51,-2.90796e+50,-1.11177e+51,-5.23284e+50,-6.57185e+50,1.72589e+51,2.979e+50
-4.0256e+45,-3.90019e+45,-5.4916e+44,-7.97318e+45,-7.86223e+45,-9.28999e+45,2.41314e+45,3.83449e+45
2.9396e+46,1.35722e+47,1.30729e+46,1.71752e+46,4.49298e+46,8.81573e+46,-1.03423e+47,-3.34556e+46
-2.11549e+46,-5.15783e+46,-3.04894e+46,-4.66123e+46,-2.53448e+46,-5.92815e+46,7.07912e+46,2.72442e+46
-6.24185e+46,-7.55598e+46,-7.29817e+46,-1.1783e+47,-6.72788e+46,-6.13762e+46,6.87311e+46,5.78084e+46
-1.5202e+46,1.03295e+45,-1.28767e+44,-2.77399e+45,-8.42474e+45,-2.61087e+46,2.67094e+46,-1.96895e+46
-5.02148e+46,-1.44559e+47,-5.87378e+45,8.59357e+45,-1.96621e+47,-3.84574e+46,6.48692e+46,-1.1739e+47
-6.03295e+45,1.70074e+46,1.36037e+46,2.01298e+45,1.15894e+45,1.40821e+46,5.14423e+45,1.00113e+45
9.9762e+52,7.24983e+52,-5.2579e+51,1.68791e+53,2.6189e+53,6.34415e+52,8.74017e+52,3.0958e+53
2.07233e+50,6.06232e+50,5.23223e+50,4.83411e+50,7.54643e+49,8.06516e+50,1.01195e+51,1.11723e+51
2.17472e+48,-4.10564e+48,6.01388e+47,-2.45956e+48,-4.47592e+48,-2.49495e+48,-2.66134e+48,-4.38825e+48
7.87565e+51,-2.08641e+52,-3.58279e+52,-3.23842e+51,-2.71992e+52,-4.03693e+52,-1.01848e+52,-2.46216e+52
-3.1024e+49,1.53835e+49,1.13483e+49,-5.50365e+48,4.00474e+49,4.13701e+49,2.29353e+49,4.6314e+48
1.48999e+46,2.64951e+46,3.67563e+46,3.29917e+45,2.97459e+46,6.15739e+45,-2.38838e+46,-3.11348e+46
2.01311e+45,-2.04832e+43,-2.72804e+45,1.42762e+46,-2.85709e+45,-1.78997e+45,5.24466e+42,3.43861e+45
-3.2263e+48,-1.11143e+49,-2.38057e+48,-7.04538e+48,-3.9453e+48,-3.86069e+47,8.68061e+48,1.26934e+49
1.30883e+52,1.65357e+52,1.0803e+51,-5.43928e+51,4.43549e+50,1.32973e+52,-1.88975e+52,-9.82556e+51
1.59806e+48,6.92951e+47,1.41226e+48,1.5335e+48,7.38513e+47,1.82658e+48,-4.9156e+47,-1.06185e+48
-2.97948e+46,-1.06594e+46,-4.80635e+46,-3.92181e+46,-7.63232e+46,-8.24821e+46,1.5815e+46,3.24871e+46
-6.27321e+46,-1.27453e+46,-8.83192e+46,-1.21407e+47,-5.14216e+46,-1.12547e+47,8.63657e+46,7.81266e+46
2.97871e+46,-4.08144e+45,-7.4861e+45,1.13792e+47,-1.76325e+45,1.49647e+46,2.5066e+47,2.52072e+47
-2.06829e+46,-3.04184e+46,-2.26797e+46,-3.15951e+46,-2.86146e+45,-2.7384e+46,1.49482e+46,2.35333e+45
-2.4182e+46,2.35484e+46,5.465e+46,1.91218e+46,1.00311e+47,-1.60051e+47,1.3029e+47,9.08563e+46
-3.71763e+48,-5.46634e+48,-4.32832e+47,-9.32582e+48,-1.17247e+49,2.17875e+48,-3.35088e+48,-9.83853e+48
2.72026e+44,3.52931e+44,3.59779e+44,2.9277e+44,8.07399e+43,-4.81202e+44,-7.41196e+42,1.70341e+44
-1.88247e+47,1.07549e+47,1.01382e+46,8.6779e+46,1.22397e+47,3.29562e+47,7.66194e+46,9.05319e+46
4.12953e+50,-5.12776e+50,-2.83644e+51,-3.97134e+50,-4.44448e+50,-1.7662e+51,-1.47469e+51,-2.11303e+51
-1.16748e+50,-4.95737e+50,-4.58237e+50,-4.22135e+50,-4.05341e+50,-1.93278e+49,1.29207e+50,-7.70338e+50
2.26769e+45,-2.78487e+45,-2.93362e+45,-2.77623e+45,-1.22865e+45,-2.88788e+44,-2.31934e+45,-4.7073e+45
-4.76204e+44,-1.33346e+44,-3.43017e+44,-4.44396e+44,-6.97237e+44,-1.40487e+45,6.25862e+44,1.01053e+45
1.27998e+45,3.83529e+44,1.6998e+45,-7.59342e+42,1.62271e+45,3.47311e+44,-7.75558e+44,-1.05738e+45
5.87772e+45,1.25645e+46,3.58651e+45,1.12154e+46,1.4482e+46,1.15788e+46,-2.05347e+46,-3.17811e+44
-6.04487e+46,4.98688e+46,1.15429e+47,4.19786e+46,6.61616e+46,3.6667e+47,-1.06597e+47,-1.57502e+47
-1.25008e+46,-2.17741e+46,-2.67195e+46,4.9282e+44,-7.22716e+45,-2.6012e+45,1.75613e+45,2.36217e+46
2.23427e+46,-1.08594e+47,-9.75937e+46,-3.33081e+46,-9.46203e+46,-1.01608e+47,9.10746e+45,7.40513e+46
-1.89251e+45,-1.42745e+45,-5.02671e+45,-3.38477e+45,-1.73192e+45,-3.27805e+44,1.03974e+45,-4.19674e+44
-1.38867e+47,-1.21563e+47,-1.31739e+47,-2.58084e+47,-6.06925e+46,-5.6972e+45,2.48243e+47,-1.89825e+47
4.88622e+45,-5.01595e+46,-1.8589e+46,-9.45126e+46,-1.99145e+47,-7.00459e+46,-7.75793e+46,-9.1715e+46
-1.0012e+46,-5.80283e+46,-4.51448e+46,-2.58717e+45,-1.05169e+46,-2.83652e+46,-5.05063e+46,-5.82292e+46
-2.35479e+47,-5.46635e+47,-2.96469e+47,-3.44191e+47,-4.73682e+47,-4.91844e+47,-6.85924e+46,-6.06953e+47
5.37495e+52,2.52487e+53,4.97342e+53,5.29619e+53,2.097e+53,7.21866e+53,7.38259e+52,2.63329e+53
2.49815e+53,-1.17903e+53,-1.27143e+53,-1.70413e+53,-2.90441e+53,-3.21967e+53,-3.02492e+53,-1.03506e+53
-6.95901e+52,-3.71972e+52,-2.56517e+52,-5.34852e+52,-1.15848e+52,-2.13847e+53,-9.99019e+52,-1.65406e+53
1.20049e+47,2.21754e+47,9.09521e+46,9.97018e+46,9.42807e+45,2.15213e+47,-3.32504e+46,-8.11368e+46
-5.67748e+44,2.19339e+44,7.60318e+44,-4.80555e+44,1.63918e+44,6.41749e+44,-1.06951e+45,-8.86949e+44
-4.34335e+45,-1.4142e+47,-7.33321e+46,-2.28153e+45,-9.45524e+46,-6.87468e+45,1.01582e+47,1.54074e+47
-2.02285e+50,-2.98789e+50,5.54846e+48,-2.30142e+50,-3.86152e+50,-1.34174e+50,3.70223e+50,-1.76848e+48
-3.99531e+46,-5.61442e+46,-2.48753e+45,-8.74261e+46,-9.88045e+46,-8.34372e+46,1.03744e+47,9.20669e+46
-1.37132e+46,1.92583e+47,1.80758e+47,1.30931e+47,1.06587e+47,1.42203e+47,-1.39903e+47,-1.50579e+47
-1.46642e+44,-2.17191e+44,-8.38165e+43,-8.86978e+44,-2.0012e+44,-7.67808e+44,1.08912e+45,4.73997e+44
-6.15814e+45,1.89194e+46,2.18551e+46,1.65735e+46,2.35548e+46,-5.20913e+46,-2.65381e+46,-2.73963e+46
-2.61495e+45,1.57868e+46,5.53381e+45,7.04548e+45,1.2992e+46,1.8463e+46,-1.36163e+46,2.57896e+45
-5.90067e+44,1.59035e+43,-3.34987e+45,-1.25292e+45,-2.83828e+45,-3.11739e+45,2.94918e+45,2.43608e+45
-1.01617e+47,-2.42532e+47,-3.54859e+47,-4.32139e+47,-3.08807e+47,2.13547e+48,-1.83619e+48,-1.77856e+48
-1.38666e+45,-8.62994e+45,2.04273e+44,-1.25722e+46,-1.41542e+46,-7.17204e+45,-1.61768e+46,-1.68255e+46
-3.87817e+45,2.97562e+45,8.54557e+44,2.28208e+45,4.83051e+45,3.34066e+45,1.4935e+45,3.28515e+45
-3.6412e+50,-1.33175e+50,1.58205e+50,1.0341e+51,1.2439e+51,9.89253e+50,1.4097e+51,1.14827e+51
1.79931e+46,-6.52453e+45,-1.83294e+46,-1.91024e+46,-8.35476e+45,-2.28219e+46,-4.08161e+45,-1.15592e+46
9.11328e+45,-1.1846e+46,-1.28439e+46,-1.58308e+46,-2.53166e+45,-7.99071e+45,-2.69764e+46,-8.67341e+45
-7.83379e+44,-6.54548e+44,-8.65676e+44,-6.34544e+44,-9.98216e+44,-8.07143e+44,1.13519e+45,2.18194e+45
-1.39879e+44,-1.62492e+44,-4.06228e+44,-3.39989e+44,-7.11549e+43,-3.80217e+44,3.19367e+44,7.38757e+43
1.24329e+47,3.01423e+47,1.0219e+47,2.57944e+46,1.5437e+47,8.18465e+46,-3.17289e+47,-7.62426e+46
-1.77248e+46,1.82683e+46,1.12843e+46,8.09785e+46,1.45419e+47,1.30555e+47,-6.80236e+46,-2.73562e+45
-7.32192e+42,1.56619e+44,3.37534e+44,4.1686e+44,3.64176e+43,5.10422e+44,-5.11496e+44,-3.30199e+44
1.32345e+49,1.91912e+49,1.13088e+49,3.39332e+48,3.88828e+48,3.54661e+48,-1.12438e+49,-4.86455e+48
2.73204e+45,3.13139e+45,-1.58623e+45,3.31067e+45,5.61715e+45,5.55924e+45,-2.05908e+45,4.26816e+45
-1.71143e+46,-1.25707e+46,7.84696e+45,-2.21664e+46,-4.68744e+46,-1.89384e+46,1.71857e+46,-2.2074e+46
-6.27793e+44,8.61166e+44,2.80979e+44,9.54242e+44,1.12127e+45,1.72835e+45,-1.4984e+44,4.45482e+44
4.98666e+46,-4.75137e+46,-2.47302e+46,-3.98514e+46,-2.64912e+46,-8.74753e+46,-1.31639e+46,-3.16798e+46
6.5742e+50,1.54014e+51,-1.49536e+50,1.48631e+51,5.48186e+50,3.09666e+50,1.01487e+51,1.10853e+51
-1.52204e+54,-5.71536e+54,-6.24758e+53,-3.08885e+54,-4.56896e+54,-4.63159e+54,-1.98994e+54,-5.21901e+54
1.79597e+52,1.32269e+52,-4.36878e+53,-4.34324e+53,-2.1231e+51,-2.47412e+53,-1.50694e+53,-1.6495e+53
-7.42211e+53,-9.33018e+53,-3.43195e+54,-2.73412e+54,2.7942e+52,-2.48899e+54,-3.15927e+54,-4.12773e+54
2.99335e+50,-4.24878e+50,-2.59312e+50,-1.6133e+50,-3.27983e+50,-8.25572e+50,-5.49272e+50,1.49109e+50
1.51777e+50,1.72433e+50,1.9989e+50,-4.44628e+49,2.5385e+49,2.77322e+50,-2.90362e+49,-1.77503e+50
-1.92103e+47,-9.95103e+47,-3.0302e+47,-1.69994e+48,-4.00822e+47,-6.24501e+47,7.65447e+47,-6.36568e+46
1.03158e+49,5.32242e+49,2.41934e+49,1.69243e+49,1.54426e+49,5.6971e+49,-2.2098e+49,-4.31035e+49
-9.09548e+44,1.37942e+45,7.15418e+43,3.23648e+44,1.72795e+45,6.18297e+43,-9.40936e+44,-1.01839e+45
-1.04243e+46,-2.9366e+45,-4.72665e+45,-1.57541e+46,-1.05062e+46,-1.28222e+45,4.72088e+45,7.72905e+44
1.18314e+47,1.7152e+47,3.14111e+46,8.58969e+46,1.90597e+47,-4.58765e+46,-6.59763e+46,-1.71989e+47
5.30987e+46,3.42451e+47,1.55039e+47,1.91997e+47,2.20275e+47,-1.93344e+47,-2.36186e+46,-3.50118e+46
-4.20821e+47,-1.30777e+48,1.8359e+47,-1.25113e+48,-3.21051e+48,5.78079e+48,2.73222e+48,1.89477e+48
-1.4075e+51,-1.85549e+51,-2.19316e+50,-1.85397e+51,-1.27188e+51,-7.04734e+50,3.37099e+50,1.75626e+51
-3.12542e+47,-2.3584e+47,-6.43795e+47,-4.64517e+47,-4.04007e+47,9.24386e+46,2.18696e+47,3.60474e+46
-1.99552e+44,3.5253e+44,2.07192e+44,-3.74407e+43,1.67563e+44,-2.79735e+44,-3.90839e+44,-1.78791e+44
3.36634e+45,-8.8918e+46,-1.12222e+47,-1.89871e+47,-1.873e+47,-3.0184e+47,2.7812e+45,-1.26553e+47
1.00325e+47,-4.04875e+46,-1.52147e+47,-9.03168e+46,-6.48554e+46,-1.32709e+47,-3.80928e+46,-6.70217e+46
1.15593e+47,-9.97412e+46,-8.24578e+46,-2.43594e+47,-1.87022e+47,-2.48263e+47,-1.58014e+47,-1.12831e+47
3.04538e+45,4.14552e+44,-1.08634e+45,-4.85308e+45,-5.28756e+45,-2.09028e+45,-1.4713e+45,-5.64961e+45
-2.32627e+46,3.22904e+46,4.21306e+46,8.44247e+45,5.18978e+46,2.95176e+46,2.63357e+46,5.82306e+46
-9.55215e+45,-1.99529e+46,-2.76739e+46,-2.76531e+46,-1.75332e+46,-1.27279e+46,4.02824e+46,3.98205e+46
-4.76571e+46,1.45101e+47,1.10714e+47,1.126e+47,4.81063e+46,2.82504e+46,-1.84716e+47,-7.2895e+46
-4.86604e+45,4.44996e+45,1.95515e+46,2.18773e+46,1.81243e+46,1.6703e+46,-2.29025e+45,-1.96036e+46
-5.74045e+45,8.13886e+45,9.70136e+45,1.1808e+46,1.20043e+46,2.36529e+45,-1.34844e+46,-2.17156e+45
-4.79624e+45,5.7718e+46,2.34558e+46,1.82203e+47,3.09116e+47,2.68099e+47,-1.10818e+47,1.34586e+47
-7.14843e+46,1.0728e+47,4.12044e+46,1.42779e+47,1.46096e+47,2.11322e+47,-1.36619e+47,2.67774e+46
-2.47493e+46,-7.96277e+46,-2.90148e+46,-8.51167e+46,-6.28325e+46,-4.65515e+46,7.16714e+46,-1.08922e+47
-3.74618e+46,-6.22701e+46,-8.04269e+45,-4.66056e+46,-1.19581e+47,-5.59322e+46,-1.22111e+46,-7.74452e+46
-2.84188e+47,2.46465e+47,1.65635e+47,-3.53466e+46,3.6321e+47,4.78637e+47,5.38636e+46,4.41821e+47
-3.48034e+45,-1.99712e+45,1.08922e+46,3.72507e+45,1.44976e+46,1.59046e+45,-7.04508e+45,1.30362e+46
1.71277e+50,1.09023e+51,1.83925e+50,-9.40141e+50,6.62527e+50,1.1278e+51,2.09062e+50,5.63546e+50
3.54582e+49,-3.62932e+49,-3.39875e+49,-4.93707e+49,-4.48513e+49,-1.03399e+49,-3.63026e+49,-5.16453e+49
-5.0492e+49,1.85731e+49,-3.07189e+50,-2.01848e+50,-2.98676e+50,-4.50371e+50,1.86813e+50,-2.51006e+50
-4.40017e+45,-5.84311e+45,-1.64892e+46,3.11733e+46,-4.00098e+46,-3.1335e+46,-3.9734e+46,-1.39349e+45
-2.12643e+52,-9.21969e+51,2.10282e+52,7.48176e+51,-4.44901e+52,-4.22372e+52,3.13295e+52,-6.50743e+52
1.67954e+49,1.93955e+50,-3.32973e+49,-2.66314e+49,1.13178e+50,1.38893e+50,-2.39935e+49,3.15311e+50
7.80516e+43,-1.7311e+44,-3.53484e+44,-6.62229e+44,-1.26752e+44,5.52416e+44,3.39263e+43,1.38169e+45
1.59412e+46,2.59588e+47,8.89064e+46,5.57699e+46,1.28048e+47,-6.21675e+46,-2.56199e+47,-1.67166e+47
1.98629e+44,1.79585e+42,-3.26944e+44,-8.59888e+44,-1.36839e+45,1.65912e+45,3.73187e+44,3.72517e+44
2.09341e+46,-8.64703e+46,-6.7728e+46,-1.20515e+46,-9.77605e+46,5.98144e+46,3.81267e+46,2.98256e+46
2.31556e+47,9.8437e+46,4.48444e+46,3.09384e+46,2.85124e+47,-1.2274e+47,-2.78499e+47,-1.69079e+47
-5.82525e+45,2.91767e+46,3.57468e+46,3.66741e+46,3.33099e+46,-4.38178e+45,-6.38769e+46,-6.45851e+46
-1.34447e+49,-9.73162e+49,-2.09678e+50,-4.72039e+49,-5.97532e+49,-1.19215e+50,3.07129e+49,5.81197e+49
2.29335e+50,5.0944e+49,-5.43714e+50,1.03315e+50,-5.20465e+50,4.822e+50,4.12863e+50,2.44712e+50
-3.07371e+45,-1.89972e+45,-1.28422e+45,-4.89949e+45,-5.66674e+43,5.79896e+45,2.5769e+45,4.71401e+45
3.10444e+44,1.01719e+45,6.37901e+44,9.0332e+44,2.75491e+44,6.42402e+44,1.13101e+45,1.38298e+45
1.00563e+45,-1.4116e+45,8.98948e+43,4.07565e+43,-1.53976e+45,-1.63613e+45,-1.95889e+44,-6.54151e+44
-4.0333e+46,-3.0636e+46,-7.19777e+46,-2.11978e+47,-3.50652e+46,-1.25063e+47,-1.30387e+47,-1.97192e+47
-4.28636e+45,6.99208e+45,4.46019e+45,5.13414e+45,3.92685e+45,2.0268e+45,4.38763e+45,5.19357e+45
1.1738e+47,7.7918e+46,6.89326e+46,2.04057e+47,2.22417e+47,1.70301e+47,6.61367e+46,2.48216e+47
4.36135e+46,5.74249e+46,-1.21675e+46,8.68216e+45,5.08716e+46,3.07623e+46,-2.68017e+46,5.96109e+46
4.61626e+44,1.99638e+44,2.09363e+44,2.29932e+44,2.04093e+44,-5.03278e+44,-2.7406e+44,3.73179e+44
-5.11036e+46,2.42047e+46,1.7753e+46,1.60373e+47,5.83354e+46,2.05602e+47,-4.2428e+46,-2.35242e+47
6.88709e+46,-1.03317e+47,-3.6107e+45,4.85083e+46,-1.2423e+47,-2.5621e+47,4.04365e+46,1.89554e+47
-2.85926e+44,-8.13029e+44,-3.6462e+43,-7.33716e+42,-2.47866e+44,-4.01284e+44,7.82586e+44,-7.05634e+44
-5.01415e+46,-1.91281e+47,-5.40251e+46,-1.43629e+47,-9.99322e+46,-2.25794e+47,2.40517e+47,-2.10145e+47
6.53563e+46,1.21425e+47,1.24387e+47,-1.45163e+46,5.26532e+46,6.8023e+46,-5.8583e+46,5.13648e+46
4.04108e+45,1.17248e+45,-3.29851e+42,2.41173e+45,8.25852e+45,4.05674e+45,-4.69798e+45,2.92781e+45
2.67788e+44,4.79607e+44,5.39902e+44,-8.06943e+43,5.99585e+44,-4.77372e+44,1.31006e+44,-3.80885e+44
-2.5243e+51,-2.27147e+52,-5.38442e+51,-1.37603e+52,-1.48542e+51,-4.04496e+51,-2.05903e+51,-2.9772e+51
-1.00599e+56,-8.46076e+55,-5.49432e+55,2.93689e+55,-8.79181e+55,-5.96452e+55,3.35149e+55,-1.21571e+56
-1.58323e+54,-1.35684e+54,-2.06894e+54,-5.38294e+53,-3.05221e+53,-1.79725e+54,4.6462e+53,-2.94308e+54
1.19147e+57,-1.8269e+56,-2.29921e+57,-2.91171e+56,-2.38377e+56,-5.75143e+56,3.56797e+57,-1.96395e+57
1.91336e+55,4.01965e+55,1.24793e+55,-3.33122e+55,3.6848e+55,4.50708e+55,-7.85361e+54,4.76665e+55
5.89409e+51,4.56046e+50,-3.34768e+52,9.18988e+51,-1.73159e+52,-1.96868e+52,1.61845e+52,-7.29089e+51
-3.46056e+51,2.37534e+49,1.53111e+51,-5.21216e+51,-1.73075e+51,-3.93797e+51,6.05058e+51,-4.75528e+51
3.87657e+44,-5.65212e+44,-4.1456e+44,-4.66418e+44,-6.90464e+44,2.51733e+45,7.77385e+44,1.96972e+45
-6.00003e+46,-1.90651e+47,-2.45471e+47,-1.97738e+46,-2.27153e+47,5.33178e+46,1.86275e+47,8.94015e+46
9.0048e+43,1.10025e+44,6.07403e+44,6.93977e+44,2.29886e+44,-7.49518e+44,-8.41724e+44,-9.02948e+44
-2.89506e+46,-1.07405e+47,-1.83406e+46,-1.3456e+47,-5.51876e+45,1.49017e+47,2.00379e+47,8.11043e+46
1.402e+47,2.06934e+47,7.2949e+46,1.13694e+47,2.58634e+47,-1.80172e+47,-1.07964e+46,-2.80137e+47
-1.85203e+47,7.48074e+47,7.57278e+47,4.6023e+47,9.8488e+47,-5.57822e+47,-8.97143e+47,-4.82039e+47
-1.26855e+49,-1.27325e+49,-3.32535e+49,-2.49411e+49,-4.1569e+49,4.19556e+49,3.3711e+49,3.4773e+49
-1.67635e+50,2.38354e+50,3.63449e+50,9.58341e+49,1.91941e+50,-1.40745e+50,-3.42372e+50,-4.97294e+50
5.1695e+43,9.90949e+44,8.92831e+44,9.59559e+44,9.77429e+44,-1.00503e+45,-1.54701e+45,-5.33688e+44
1.0812e+46,5.74991e+46,1.00096e+46,5.49293e+46,8.07785e+46,2.94505e+46,3.76532e+46,2.95695e+46
4.14456e+46,1.18891e+47,-7.09861e+45,-2.87313e+45,2.93992e+47,7.03861e+46,3.05373e+47,1.25973e+47
-1.32028e+47,3.65119e+47,1.12211e+47,3.21967e+47,3.59184e+47,4.66668e+47,3.01462e+47,3.96112e+47
8.28664e+44,-1.23055e+46,-3.86235e+45,-1.52787e+46,-1.53226e+46,-1.50757e+46,-3.2339e+45,-8.46445e+45
-1.1607e+44,-3.11615e+44,4.97648e+44,-1.59051e+44,-2.77947e+44,-4.53265e+44,1.01808e+45,-3.01677e+44
-3.48962e+45,-6.54786e+45,2.63051e+44,-7.8158e+45,-6.90613e+45,-5.17951e+45,5.49556e+44,-5.54677e+45
3.56361e+45,-3.48314e+45,-1.52849e+46,-4.37075e+45,-6.20532e+44,-1.46705e+46,1.12671e+46,-7.79414e+45
2.92932e+46,4.43497e+45,-2.7095e+46,1.22815e+46,1.46156e+45,-1.41008e+47,4.67693e+44,-1.41501e+47
4.89319e+46,6.2818e+46,5.59246e+46,7.63083e+46,5.9568e+46,-7.22064e+46,-2.16667e+46,-2.69468e+46
4.10377e+46,-5.79521e+46,-4.13273e+46,-5.64692e+46,-7.45847e+46,-6.55355e+46,3.25697e+46,-2.33295e+46
4.60161e+46,-1.34681e+47,-1.82511e+47,-8.88918e+46,-2.76441e+47,-1.20182e+47,1.86032e+47,-1.14227e+47
1.48419e+44,-3.40675e+44,-4.64747e+44,1.35138e+44,-8.56153e+43,-7.11882e+44,7.3457e+44,-6.17551e+44
1.66918e+45,6.35795e+45,1.1778e+46,5.07547e+45,5.15865e+45,1.16872e+46,-2.32876e+45,4.07429e+45
-4.07553e+48,5.41209e+48,6.04942e+48,-1.49487e+48,5.79628e+48,9.47308e+48,-6.9488e+48,1.19062e+47
5.44455e+51,-1.83682e+52,-3.1523e+52,1.21979e+53,-7.40524e+52,3.85887e+51,2.67247e+52,-5.53164e+52
-6.73617e+55,-4.95687e+55,-1.04753e+56,5.66666e+55,-4.45481e+55,-5.73343e+55,1.2074e+56,-5.52172e+54
-7.01252e+51,3.18601e+54,3.24983e+54,-2.86733e+54,1.78875e+54,1.77235e+53,-1.60146e+53,2.70512e+54
-2.31733e+52,6.2839e+54,8.22982e+54,-4.983e+54,1.15175e+55,6.72966e+54,-9.72078e+54,4.95873e+54
3.64921e+53,4.6406e+52,5.23761e+53,-1.49367e+52,2.00954e+53,3.58342e+52,-3.65335e+53,4.08494e+53
-2.64049e+54,-1.51677e+54,5.88923e+54,-1.97734e+54,5.4809e+54,3.15426e+54,-2.97066e+53,2.49991e+54
-2.39964e+47,-1.21152e+47,1.36977e+47,-1.99964e+47,-1.57632e+46,-1.52654e+46,3.73394e+46,-2.92343e+45
-3.12644e+45,-9.94223e+45,-1.00072e+46,-6.52719e+45,-5.56584e+45,-4.9425e+45,1.04786e+46,-5.10768e+45
1.55097e+45,3.76336e+45,3.06763e+45,4.14899e+45,3.4467e+45,-1.97825e+44,-2.5914e+44,-1.08611e+45
2.20468e+45,5.88481e+46,1.79954e+47,1.22131e+47,1.27939e+47,-4.18224e+46,-1.05699e+47,-1.21091e+47
6.46287e+46,1.48086e+47,8.7063e+45,1.17706e+47,1.61779e+47,-1.09107e+47,-2.20873e+47,-1.95759e+47
-1.60491e+52,-3.99665e+51,-9.1669e+50,-3.81352e+50,-3.32076e+52,3.7037e+51,1.31071e+52,1.81405e+52
1.99839e+47,1.83305e+48,5.95983e+47,1.56425e+48,1.44357e+48,-2.08786e+48,-7.13674e+47,-1.5468e+46
3.93889e+44,-1.54489e+45,-4.75453e+44,-4.29017e+44,-7.51627e+44,-2.55747e+44,3.92262e+44,7.68193e+44
-4.6802e+46,5.66777e+46,2.05001e+47,5.48305e+46,1.11618e+47,-3.05442e+45,-2.65265e+46,-6.26517e+46
1.18463e+46,1.60755e+46,2.84044e+47,1.81744e+47,9.53212e+45,-3.16165e+46,-6.13672e+46,-2.41075e+47
2.20993e+44,-2.24829e+44,-1.98974e+44,-4.08692e+44,-1.97697e+44,-3.59994e+44,-4.2902e+44,-2.34049e+44
3.28565e+45,5.05045e+44,-2.75713e+45,-5.26804e+45,-1.67239e+45,-5.74474e+45,-6.94937e+45,-1.62921e+45
1.08143e+45,-8.60891e+44,1.06815e+44,-1.76647e+45,-2.13873e+45,-2.3314e+45,-9.0549e+44,-2.59034e+45
3.46239e+44,1.41094e+45,1.08891e+45,1.16123e+45,2.33559e+45,1.18054e+45,-1.30729e+45,1.05978e+45
-5.94091e+48,-3.80974e+48,-2.96251e+48,-6.49594e+48,-2.9021e+47,-5.75437e+48,7.04626e+48,-1.41953e+48
2.67939e+47,5.00944e+46,1.23423e+47,1.35754e+47,4.73949e+47,6.01494e+47,-1.76969e+47,5.93992e+47
-1.13603e+45,-9.20717e+44,-1.72839e+44,-3.40645e+44,-1.48597e+45,-7.39263e+44,4.19618e+44,-3.68916e+44
-3.1975e+46,2.60095e+46,6.47574e+46,1.00422e+45,2.17708e+46,1.64375e+47,-2.54851e+46,1.62523e+47
5.67638e+46,1.55649e+47,2.03688e+47,8.62658e+46,1.70721e+47,8.60227e+46,-2.19187e+46,1.31258e+47
-3.87623e+45,3.48498e+45,-2.42983e+46,4.85166e+45,-3.00836e+46,-2.92455e+46,2.22755e+46,-4.6847e+46
-5.99465e+46,8.59708e+46,4.37967e+46,-4.64253e+46,1.1239e+47,2.94557e+47,-2.63102e+47,1.95814e+47
-1.70045e+47,-1.40777e+47,-1.13951e+47,-1.01312e+47,-2.22753e+47,-5.66163e+46,9.08405e+46,-2.53683e+46
6.33152e+46,-3.72352e+46,5.7049e+45,-1.14589e+47,-1.23274e+46,-1.26469e+47,-1.77695e+46,-1.20493e+47
1.81542e+52,1.75533e+51,5.77265e+51,1.12584e+52,-2.97143e+49,1.33942e+52,-2.29456e+52,1.16284e+52
4.74302e+55,-7.24335e+54,7.72857e+55,5.86836e+55,6.35717e+55,5.1912e+55,-7.86734e+55,-4.27504e+55
5.66442e+52,-9.40554e+52,-1.04679e+53,-4.8618e+54,2.13799e+52,-2.23396e+52,4.33745e+52,-1.07599e+53
3.48092e+53,8.47607e+53,4.70366e+53,8.683e+52,1.64389e+53,9.88793e+53,-2.49851e+53,1.16217e+54
-1.8503e+52,-3.16447e+52,-6.68117e+51,-1.45742e+51,-4.43437e+52,-4.05112e+52,4.00519e+52,-3.81762e+51
-1.17114e+50,2.19418e+50,1.62752e+50,-3.09939e+50,3.49957e+50,1.54743e+50,-4.29304e+50,9.98482e+48
1.40952e+49,8.24306e+48,2.36166e+49,2.14149e+49,2.61884e+49,1.36832e+49,-3.21964e+48,1.6903e+49
-3.69634e+51,2.48366e+50,-3.41952e+51,-7.27515e+51,-6.77221e+51,-6.04048e+51,2.08709e+51,-1.04352e+52
-7.01993e+45,1.74488e+47,2.31056e+47,1.83345e+47,1.02399e+47,5.63357e+46,-1.49561e+47,6.21907e+46
8.47704e+46,2.29843e+47,4.02035e+46,1.15767e+47,1.47291e+47,3.76862e+47,-3.80439e+45,3.43426e+47
-7.03014e+47,-4.08613e+47,-6.36468e+47,-1.23018e+48,-7.15483e+47,3.92152e+47,1.08995e+48,5.23201e+47
-1.43975e+54,-2.524e+54,-1.81956e+53,-1.4375e+54,-9.49737e+53,1.50334e+54,2.31928e+54,8.83474e+53
3.57726e+52,1.33953e+52,3.1139e+52,4.98121e+52,5.46235e+52,-3.84882e+52,-1.77937e+52,-3.41401e+52
-3.40461e+45,-7.27952e+46,-3.64491e+46,-7.61598e+46,-9.09022e+46,6.74876e+46,4.35398e+46,1.08357e+47
1.83152e+45,5.5019e+45,5.38919e+44,6.1472e+45,1.2348e+45,-5.396e+45,-2.87735e+45,-1.1443e+46
-9.14846e+46,2.20361e+47,1.18628e+47,6.57449e+46,2.36559e+47,-1.46809e+47,-9.90912e+46,-3.00678e+47
4.17904e+45,7.43194e+45,3.66969e+45,2.23784e+45,5.8995e+45,-3.32995e+45,-6.77651e+45,-1.23038e+45
-3.42728e+46,4.1329e+46,-4.56244e+45,1.52959e+47,1.69763e+47,4.12447e+46,6.97804e+46,1.63066e+47
-1.65612e+44,4.13783e+44,6.24124e+44,5.60786e+44,1.63068e+44,6.50665e+43,5.78108e+44,2.95874e+44
1.08572e+47,9.43529e+46,1.86729e+46,1.13675e+47,4.57724e+46,5.74639e+46,-6.44004e+46,2.78344e+46
2.85528e+46,-1.55575e+47,-3.67517e+47,-4.08466e+47,-5.91995e+47,-5.99281e+47,2.01774e+47,-2.49961e+47
-5.00665e+45,2.97267e+46,6.71574e+44,4.59883e+46,4.85348e+46,4.70763e+45,-4.16361e+46,5.066e+46
-4.43517e+46,-8.21445e+45,9.8295e+45,-5.09952e+46,-3.80175e+46,-3.63886e+46,9.811e+45,-8.53649e+46
-1.84863e+49,-4.27418e+47,-4.35906e+49,-2.56501e+49,-3.73254e+49,-4.96124e+49,1.68855e+49,-2.44685e+49
8.97161e+46,-9.02591e+46,-7.78145e+46,-4.63737e+46,-4.2118e+46,-1.013e+47,4.05141e+46,-8.21917e+46
-2.3227e+46,-1.30937e+46,-1.62344e+46,4.45707e+45,-5.31306e+45,-4.4453e+45,2.43985e+46,4.22972e+45
1.6187e+46,6.78227e+45,5.14345e+46,1.05203e+47,6.89309e+46,1.19948e+47,-1.94757e+46,1.05738e+47
-1.00464e+45,3.78565e+45,4.39129e+45,1.33557e+45,5.70346e+44,1.86182e+45,-3.1171e+45,2.21267e+44
1.0311e+46,-1.82681e+44,4.97353e+45,8.28481e+45,1.60097e+44,7.62969e+45,-1.09364e+46,-9.47549e+45
-2.93621e+46,2.0105e+47,5.31384e+46,1.92651e+47,2.40735e+47,2.34277e+47,-3.17842e+46,-1.94456e+47
1.62637e+50,-2.56636e+49,1.50262e+50,9.2168e+48,3.33655e+50,1.03916e+50,-2.10735e+50,-2.51666e+50
8.23034e+51,4.747e+52,5.42062e+51,4.53119e+52,3.47498e+52,2.90924e+51,-4.05966e+52,-1.24464e+52
3.6955e+51,7.05995e+52,4.46286e+52,3.48568e+52,4.85069e+52,7.00792e+52,-5.00277e+52,-8.16048e+52
4.54669e+43,-2.0496e+45,1.93682e+45,-4.5845e+45,8.42132e+44,2.42577e+45,-2.22347e+45,3.24998e+45
-5.53006e+48,-6.92582e+48,-8.54164e+48,-9.79668e+47,-1.97601e+48,-6.62182e+48,8.39127e+48,-7.16124e+48
-7.01873e+44,-8.78205e+44,-5.46902e+44,-3.95621e+44,-1.01334e+45,-6.33286e+44,3.84918e+44,-4.59443e+44
1.18956e+45,-4.24967e+45,3.40054e+44,-4.43256e+45,-3.774e+45,-6.03588e+45,3.11126e+44,-1.55565e+45
-1.50344e+46,-1.26155e+46,-4.53588e+45,-1.35485e+46,-4.09765e+45,-1.69479e+46,4.90894e+45,-2.10049e+45
-6.14904e+49,-2.38612e+49,-9.53339e+49,-1.17791e+50,-1.10169e+50,-2.20754e+49,8.40246e+49,-6.79533e+49
-9.77301e+43,-5.07654e+44,-6.28682e+44,-4.92791e+44,-6.04607e+44,-7.19559e+44,2.86427e+44,-7.58941e+44
-7.52853e+46,9.4751e+45,-5.94725e+46,-2.23793e+47,-1.8809e+47,-2.38333e+47,2.38597e+47,-8.23129e+46
3.53041e+48,5.88581e+48,7.4263e+47,4.0452e+48,1.21563e+48,-1.27498e+47,-2.6146e+48,7.16669e+48
-3.86299e+47,-1.90504e+48,3.51533e+43,-1.75189e+48,-1.94235e+48,-2.44232e+48,1.96151e+48,-4.20239e+48
1.73146e+46,-8.24276e+46,-7.85007e+46,-9.26447e+46,-1.3927e+47,5.74622e+46,1.28147e+47,1.39543e+47
1.74857e+47,1.98556e+47,2.60203e+46,1.18139e+47,1.6056e+47,-3.53034e+46,-2.57647e+47,-1.97523e+47
-5.16262e+47,-2.10163e+48,-1.80383e+48,-2.62291e+48,-3.15992e+48,9.15308e+46,1.54265e+48,9.37429e+47
-2.81333e+44,-2.04238e+45,-1.52313e+45,-1.00224e+45,-3.33175e+45,2.12199e+45,4.88411e+44,2.0643e+45
7.62379e+45,1.66479e+45,7.95203e+45,6.35839e+45,1.15407e+46,1.17148e+46,-1.58184e+46,1.27175e+46
-5.29638e+45,-8.109e+45,-1.2478e+46,-8.03519e+45,-3.9532e+45,-1.17205e+46,1.65466e+46,-8.1955e+45
2.31551e+46,-2.04081e+46,6.72979e+46,2.0843e+47,1.00525e+47,1.64054e+47,-1.88845e+47,1.14364e+47
2.79826e+43,-7.27153e+44,-4.38262e+44,-1.03988e+45,-7.00328e+44,-3.75992e+43,4.48987e+44,-1.22623e+45
7.32275e+47,-6.23893e+48,-2.97455e+48,-2.01248e+48,-4.90159e+47,-1.1106e+48,6.88998e+47,-1.70249e+48
-6.6973e+47,-3.31232e+47,-1.87895e+47,-2.1902e+48,-3.98767e+47,-2.52544e+46,1.53223e+48,-1.10608e+48
1.70242e+44,2.19926e+42,6.30596e+44,2.72709e+44,3.62507e+44,9.00887e+42,-1.54238e+44,3.18205e+44
-3.11681e+46,-5.65334e+46,-8.40591e+46,-7.83835e+46,-1.94681e+47,-1.79611e+47,1.97607e+47,-1.59093e+47
-1.00469e+46,-4.96605e+45,-1.02735e+46,-9.07466e+45,-7.82168e+45,-1.06106e+46,1.59484e+45,5.45442e+45
-7.25666e+47,-1.22855e+48,-2.75758e+46,4.91654e+46,-1.56468e+46,-6.61264e+47,5.83827e+47,5.98726e+47
5.08051e+45,-3.55593e+46,-9.82748e+45,-2.77533e+46,-1.08089e+45,-1.52043e+46,2.33947e+45,2.35262e+45
1.19893e+47,1.75048e+47,1.15729e+47,1.48289e+47,2.14194e+47,2.33579e+47,-9.66545e+46,-2.27508e+47
-1.66722e+44,1.21162e+45,1.78363e+45,2.07247e+45,1.80294e+45,1.08526e+44,-2.30582e+45,-1.37437e+45
-7.14845e+47,-3.5967e+47,-3.93659e+47,-6.99289e+47,-3.91242e+47,-6.77356e+47,1.16868e+48,9.07459e+47
1.18375e+54,3.81873e+54,5.49461e+53,3.46742e+54,5.8897e+54,3.01707e+54,-1.11524e+54,-4.22748e+54
1.03361e+51,3.92405e+50,5.02303e+50,5.01599e+50,7.7544e+50,4.14281e+49,-1.09276e+51,-3.53425e+48
-1.12721e+51,1.84667e+51,8.75787e+51,3.80046e+51,3.01396e+51,4.3953e+51,-9.42686e+51,1.59546e+52
1.41041e+47,1.4465e+47,5.81266e+45,4.5396e+47,1.44257e+46,1.82355e+46,-1.45092e+44,2.45067e+46
5.38584e+46,7.38451e+46,3.21081e+46,1.04343e+47,8.7895e+46,7.73893e+46,-3.48786e+46,1.417e+46
-2.47364e+44,-1.20663e+44,1.85772e+43,-3.9957e+43,-4.84217e+44,-3.1866e+44,8.64239e+43,-2.48458e+44
-7.44042e+46,9.2951e+45,6.58994e+45,-1.7086e+47,-1.78226e+47,-1.8463e+47,3.27e+46,-9.61785e+46
-4.9833e+47,-3.69164e+47,-3.50578e+46,-8.8082e+47,-9.32807e+47,-8.81437e+47,1.31781e+48,-9.91817e+47
-2.90561e+52,-3.36245e+51,-1.62904e+52,-5.26618e+51,-7.26056e+51,-1.72942e+52,4.94873e+51,-3.9883e+52
-3.04748e+46,2.66024e+47,2.07353e+47,1.94062e+47,7.88914e+46,4.17759e+45,-8.94599e+46,7.97276e+46
8.53319e+44,6.90434e+45,3.83099e+45,9.87265e+45,2.83954e+45,5.97674e+45,-1.26663e+44,2.82571e+45
-1.12325e+45,-1.87063e+44,-2.75352e+44,-2.91581e+44,-1.72653e+45,5.6267e+44,3.48015e+45,-1.7149e+45
-1.45391e+46,4.42151e+46,1.62543e+46,4.03015e+46,2.22085e+46,-5.38941e+46,-1.73524e+46,-8.88111e+46
-2.48123e+44,-3.52045e+44,-8.32855e+43,-3.01923e+44,-1.44547e+44,2.81807e+44,3.20961e+44,1.58466e+44
4.04379e+45,-9.89462e+44,1.01595e+46,6.8439e+45,7.49941e+45,-7.26553e+45,-1.15089e+46,-1.1825e+46
-4.27813e+45,1.57555e+46,6.41206e+46,1.6939e+46,4.51329e+46,-5.30138e+46,-3.77659e+46,-1.62779e+46
1.90336e+46,5.98889e+46,-1.0548e+45,2.6245e+46,5.26288e+46,1.05581e+46,-6.72208e+45,6.46829e+46
-5.83064e+47,-1.10034e+48,-1.56905e+48,-1.39248e+48,-1.69399e+48,-1.21123e+48,1.47382e+48,-2.40096e+48
-3.0353e+46,-4.51867e+46,-6.46913e+46,-4.30682e+46,-4.07207e+46,-2.27818e+46,4.65954e+46,-4.65971e+46
-3.6498e+45,-1.96873e+45,-5.09812e+45,-2.4417e+45,-4.64369e+45,-9.46724e+45,5.9233e+45,-4.23725e+45
2.46744e+50,2.67058e+50,5.75733e+50,2.0287e+50,2.02837e+50,1.44918e+50,-1.37391e+50,1.22504e+49
-7.59954e+44,-9.32711e+44,-8.76093e+44,-1.1272e+45,-3.82696e+44,-1.13001e+45,1.30165e+45,-1.32155e+44
3.27554e+46,2.61176e+47,2.31548e+47,3.88417e+47,1.69445e+47,2.2304e+47,-2.82606e+46,2.63506e+47
-2.14679e+46,-1.4534e+47,-1.88767e+47,-5.18603e+46,-2.27378e+47,-5.3481e+46,2.302e+47,-2.02254e+47
-1.049e+47,-1.29426e+47,-7.26681e+46,-8.17934e+46,-7.32498e+46,-1.14538e+47,6.60565e+46,-1.27965e+47
-6.66055e+45,1.04117e+45,-1.4791e+46,-4.19337e+46,-3.56636e+46,-1.15522e+46,4.01545e+46,5.25937e+45
-7.54487e+44,-1.85309e+44,-3.00341e+45,-2.52703e+44,-3.13439e+45,-2.25001e+45,2.85701e+45,3.62035e+44
-2.27197e+45,-6.12903e+46,2.14265e+45,-5.6482e+46,-2.37295e+46,-1.7449e+46,5.01434e+46,1.51222e+46
3.4497e+44,9.18808e+44,7.38952e+44,-9.51915e+42,1.12084e+45,3.34735e+45,-6.81239e+44,-1.01942e+45
1.45384e+47,4.35912e+47,-3.32866e+46,4.2044e+47,1.4327e+47,3.55597e+47,-3.1516e+47,-3.28761e+47
4.13722e+50,-2.53094e+51,-1.11811e+52,1.88828e+49,-5.1133e+51,-1.38962e+50,1.3632e+52,7.0007e+51
5.25829e+52,-6.38345e+51,6.08705e+52,8.68961e+52,4.70624e+52,1.10017e+52,-9.32884e+52,-8.52601e+51
4.35771e+50,5.0848e+50,-9.31116e+50,2.38588e+49,5.65077e+50,5.69659e+50,1.41562e+51,-2.32476e+51
5.52568e+50,9.4277e+49,5.68644e+50,4.63028e+50,7.88259e+50,6.06516e+50,-8.75466e+48,1.19706e+50
-7.71612e+46,-1.79436e+46,1.37647e+46,-2.07686e+47,-8.19724e+46,-1.60668e+47,2.41001e+47,-9.2887e+46
1.28468e+45,2.99424e+45,9.26581e+44,2.74487e+45,8.11899e+44,1.72943e+45,-1.17932e+45,2.24072e+45
8.40735e+46,2.62992e+46,1.08797e+47,4.69956e+46,2.81429e+46,1.18426e+45,-7.08122e+46,9.44164e+46
1.62854e+48,-1.19504e+48,5.89076e+48,1.6526e+48,8.03792e+48,1.62664e+48,-1.06813e+48,4.8848e+48
-4.36155e+48,-8.81149e+47,-1.27698e+49,-1.96543e+48,-1.66024e+48,-4.48689e+48,7.26412e+48,-7.4051e+48
-5.44293e+52,2.10252e+53,1.48063e+51,3.00889e+53,5.03243e+53,3.33172e+53,-4.11806e+53,3.90883e+53
-5.62047e+48,-4.63847e+47,-1.28148e+48,-1.05885e+48,-8.06602e+48,4.75522e+48,1.20794e+49,-5.90611e+48
1.76514e+46,3.44954e+46,7.02285e+46,4.91782e+46,3.36967e+46,-3.76089e+46,-5.39125e+46,3.36222e+46
2.00552e+44,3.92175e+44,1.03378e+45,1.19657e+45,1.46116e+44,-1.85742e+45,-1.15032e+45,4.63861e+45
5.891e+46,1.26291e+47,2.05272e+47,5.30929e+46,9.14736e+46,-8.05268e+46,-1.71187e+47,-3.28963e+47
-4.02656e+46,-1.12987e+47,-8.75446e+46,-1.32746e+47,-6.16524e+46,2.52465e+46,1.00482e+47,1.18007e+47
-9.25697e+44,-3.50204e+45,-2.218e+46,-3.47029e+45,-2.30853e+46,3.11594e+46,2.08285e+46,1.5531e+46
1.40146e+47,-2.91654e+47,-5.66211e+46,-1.39127e+46,-3.46278e+47,-1.93421e+47,4.33568e+47,-3.7938e+47
5.36514e+46,-4.9973e+45,1.93191e+46,-2.50668e+45,7.71565e+45,1.38001e+46,-1.24141e+46,9.57152e+45
4.37111e+48,1.41109e+49,1.13555e+49,3.13032e+49,2.85654e+49,1.53055e+49,-7.68567e+48,1.35724e+49
4.16798e+49,3.69904e+49,5.27773e+49,1.58015e+49,3.66462e+49,1.28725e+49,-1.74517e+48,5.44613e+49
1.40603e+48,1.10256e+48,5.8123e+47,5.67609e+46,4.72718e+47,4.15713e+47,-2.10873e+48,3.164e+48
-1.48692e+46,-4.57655e+45,-5.06727e+46,-4.53476e+46,-8.92673e+45,-6.87169e+46,4.46872e+46,-3.55819e+46
1.06589e+46,1.27793e+46,3.09696e+46,2.83326e+46,3.01203e+46,5.33811e+46,-2.84559e+46,5.63389e+46
2.87755e+45,1.43172e+47,1.58894e+47,1.75637e+47,2.02076e+47,9.43943e+46,-1.85976e+47,2.52624e+47
-4.19005e+44,1.7299e+45,2.1179e+45,1.48937e+45,-3.01185e+42,3.75212e+44,-2.2754e+45,1.78118e+45
-4.74662e+44,-4.75181e+44,-7.28644e+44,7.50563e+43,-6.91079e+44,-3.99889e+44,5.39574e+44,1.74766e+44
2.97142e+47,2.87724e+47,1.57524e+47,2.22321e+47,8.52449e+46,7.37927e+46,-7.56847e+45,-2.10279e+46
-4.09112e+46,-2.52831e+47,-1.17653e+46,-2.0176e+47,-1.96472e+47,-8.7068e+45,1.04577e+47,1.57721e+47
1.16623e+47,1.63524e+47,1.58987e+47,1.5437e+47,1.69573e+47,2.13154e+47,-1.58959e+47,-1.24039e+47
3.39966e+44,-3.50126e+43,3.23861e+44,2.30737e+44,2.9615e+43,4.47615e+44,-3.3365e+44,-4.68146e+44
9.81544e+44,5.4932e+44,9.89441e+44,8.25444e+44,5.39806e+44,5.23275e+44,-1.15544e+45,-2.17047e+45
1.25253e+52,1.55548e+52,7.52669e+51,1.00014e+52,1.59362e+52,5.63102e+52,-5.20165e+52,-3.70742e+52
9.71273e+52,3.4456e+52,4.09969e+53,2.28976e+53,6.45882e+52,2.56686e+53,-3.36662e+53,6.33246e+53
1.70694e+49,5.0487e+48,7.84211e+48,4.89704e+49,3.19996e+49,4.44326e+49,-4.03379e+49,9.97077e+48
-6.03287e+49,1.09542e+50,-1.82327e+49,2.33777e+50,1.078e+50,1.71677e+50,-2.9384e+50,9.5747e+49
-1.48702e+44,-2.069e+45,-2.97465e+45,-2.54038e+45,-1.80551e+45,-2.02101e+45,2.99212e+45,-3.6795e+45
-5.69274e+48,-3.83867e+47,-4.57207e+48,-6.22404e+48,-4.57765e+48,-6.67288e+48,1.18796e+48,-4.45483e+47
1.21236e+45,-7.33306e+45,-4.97249e+45,-3.30127e+46,-9.13294e+45,-4.65916e+46,2.12069e+46,-3.41401e+46
-4.80926e+49,1.9636e+50,2.44955e+50,1.78555e+50,1.23158e+50,-9.62589e+48,-1.93058e+50,5.51633e+49
-4.88392e+52,-3.1954e+53,-1.56986e+53,-3.68465e+53,-4.20039e+53,-6.45312e+53,8.3788e+52,-3.26123e+53
-2.38067e+51,-1.52397e+51,-7.80427e+51,-1.36127e+51,1.46156e+49,3.17896e+51,6.27044e+51,-7.80221e+51
5.71426e+45,6.71732e+43,3.74343e+45,7.36786e+45,7.22432e+45,-5.92705e+45,-6.36556e+45,4.0793e+44
3.15771e+46,1.67938e+45,4.01097e+46,6.16649e+46,3.69349e+46,-2.48631e+46,-4.55345e+46,3.07542e+46
-3.33866e+47,-1.3625e+48,-2.84132e+46,-8.65422e+46,-2.81461e+46,1.48715e+48,1.43908e+48,-4.15487e+47
8.00075e+52,-1.48085e+54,1.05161e+54,9.44981e+53,7.3498e+53,1.5096e+54,1.51449e+54,3.27167e+53
-3.19831e+47,8.4999e+44,-2.16705e+47,-1.54048e+47,-3.09279e+47,-1.76007e+46,7.45545e+45,2.6278e+47
2.15044e+44,-3.74357e+45,-2.47916e+45,-6.71756e+45,-4.16052e+45,-6.32898e+45,6.74024e+45,-3.37106e+45
1.83771e+47,2.31926e+47,5.26878e+44,1.82312e+47,2.1096e+47,1.35517e+47,3.45504e+44,1.15357e+47
1.0805e+46,5.51025e+45,6.16579e+45,5.58365e+45,1.26399e+46,6.58045e+45,-1.89993e+46,1.97044e+46
-1.36631e+46,8.83144e+46,2.14538e+46,1.4151e+47,3.73979e+46,9.05439e+45,-1.3573e+47,9.4985e+46
1.62822e+45,4.52991e+45,3.72427e+45,2.29311e+45,5.55561e+45,2.41837e+45,-2.52966e+45,3.59825e+45
3.61057e+46,9.76465e+46,6.4784e+45,1.56315e+46,2.77178e+46,9.45246e+46,-1.40531e+46,5.8305e+46
-1.5422e+46,-1.60114e+46,-1.86592e+46,-1.37891e+46,-7.6663e+45,-1.72472e+46,1.92927e+46,-4.08558e+45
-1.00765e+47,-5.82541e+46,-7.01434e+46,-6.70444e+46,-8.49365e+46,-4.96179e+46,2.96116e+46,-5.74179e+46
-6.31997e+43,-6.18258e+44,-4.02627e+44,-3.10209e+43,-7.01373e+44,-3.76238e+44,7.09468e+44,-2.9268e+44
1.00059e+45,-1.61699e+45,-1.01969e+45,-2.09532e+45,-3.86579e+45,-2.47759e+45,1.38447e+45,-1.14416e+45
-2.09358e+47,-8.31116e+46,-1.99936e+47,-4.38414e+46,-1.09392e+47,-8.09163e+45,2.53108e+47,7.86674e+46
1.5643e+47,1.25729e+47,5.97827e+44,6.10026e+46,2.37409e+47,2.65623e+47,-4.95605e+46,-2.02989e+47
-1.62859e+46,-7.29842e+46,-5.50495e+46,-2.8929e+46,-1.19403e+46,-1.62339e+45,4.78506e+46,1.21411e+46
-3.66482e+44,-2.65802e+43,-5.06947e+44,-2.06551e+44,-6.88315e+44,-2.4947e+44,2.88692e+44,1.53557e+44
-5.49195e+46,-2.02057e+46,-2.55854e+46,-7.64957e+46,-1.02391e+46,-4.87668e+46,8.44395e+46,4.65921e+46
-3.27247e+47,1.06001e+48,4.96947e+48,3.56578e+48,8.54036e+47,5.37691e+48,-4.81753e+48,-5.35219e+48
-7.7971e+48,6.29538e+49,4.78749e+49,1.45656e+50,1.75384e+50,9.53599e+49,-1.66422e+50,1.5013e+50
2.22384e+50,4.61656e+49,1.21856e+50,2.15953e+50,1.78669e+50,8.41748e+49,-6.45377e+49,1.88724e+49
-4.76012e+45,-9.2525e+44,-1.34934e+46,-1.44906e+46,-1.53168e+45,-6.02732e+45,1.77306e+46,-1.24117e+46
8.99449e+46,2.36702e+47,2.81801e+47,2.59078e+47,4.07488e+47,4.4263e+47,-3.75464e+47,1.5885e+47
-9.58285e+45,-4.91054e+46,-1.1485e+46,-6.32492e+46,-3.96215e+46,-5.85661e+46,4.24598e+46,2.43304e+41
2.48373e+45,2.76188e+45,-1.40902e+44,3.5081e+45,1.89212e+45,2.75708e+44,-2.71015e+45,3.4313e+45
3.68136e+45,1.82693e+46,-1.55512e+45,9.32778e+44,1.89497e+46,6.19351e+44,-3.21901e+45,5.40944e+45
-9.62591e+46,-1.50741e+47,-7.44737e+46,-1.41007e+47,6.01761e+44,1.57256e+47,3.41553e+46,-2.80731e+47
8.30198e+45,9.68949e+45,-2.56449e+44,1.3605e+46,6.71483e+45,-5.33111e+45,-6.73378e+45,2.97443e+45
-1.93288e+45,-1.52772e+45,-3.09285e+45,-1.56198e+45,-3.57535e+45,1.15118e+45,1.96859e+45,-3.26591e+44
2.12853e+45,1.13918e+45,3.32306e+45,1.46488e+44,8.19694e+44,-5.03879e+44,-1.09991e+45,4.22077e+45
3.18838e+50,1.87888e+51,-7.64833e+49,-1.82015e+50,-1.16424e+50,-1.95481e+51,-1.78178e+51,-6.60116e+49
-1.34256e+50,-5.16283e+50,4.11462e+49,-1.12925e+48,1.93063e+50,6.19478e+50,5.73911e+50,-1.14341e+48
-4.26434e+45,-2.63373e+46,3.56031e+45,5.57714e+44,6.70016e+45,3.29144e+46,3.09267e+46,5.64825e+45
